-1.651795580983161926e-02
1.002030074596405029e-01
-6.601237505674362183e-02
-6.010357290506362915e-02
2.322264611721038818e-01
-1.356649845838546753e-01
-1.914705485105514526e-01
5.103849619626998901e-02
1.755009144544601440e-01
9.337988495826721191e-02
-8.645833283662796021e-02
-2.112329564988613129e-02
-4.618221148848533630e-02
1.785114258527755737e-01
-3.273801505565643311e-02
1.593996733427047729e-01
-1.143417879939079285e-02
-1.167243197560310364e-01
4.971644654870033264e-02
-8.134872466325759888e-02
-1.269627809524536133e-01
5.047722905874252319e-02
-5.969481170177459717e-02
-2.740119993686676025e-01
2.355631068348884583e-02
-1.372114270925521851e-01
1.740538328886032104e-01
-1.776244938373565674e-01
2.580039016902446747e-02
-8.150941133499145508e-02
5.202464386820793152e-02
1.804760284721851349e-02
-7.167467474937438965e-02
-1.571129709482192993e-01
2.856014668941497803e-02
-6.768908351659774780e-02
-2.302546799182891846e-01
-2.436291128396987915e-01
-1.519305109977722168e-01
-8.603864163160324097e-02
-2.105456590652465820e-02
1.255588978528976440e-01
-3.725077211856842041e-02
-9.589461982250213623e-02
-1.115699484944343567e-01
-1.603206247091293335e-01
-7.078868895769119263e-02
-6.978599727153778076e-02
2.079466590657830238e-03
9.685900807380676270e-02
-5.916253104805946350e-02
3.784819692373275757e-02
7.346017658710479736e-02
-5.244719609618186951e-02
-1.573356539011001587e-01
-2.555005848407745361e-01
-1.535242889076471329e-02
-1.884973645210266113e-01
1.700228154659271240e-01
-1.654378771781921387e-01
-7.556722313165664673e-02
1.967004239559173584e-01
-1.778081357479095459e-01
-1.498585790395736694e-01
-2.182509750127792358e-01
8.172408677637577057e-03
-6.763668358325958252e-02
1.498215049505233765e-01
-5.808421224355697632e-02
1.883392408490180969e-02
5.666099861264228821e-02
1.163041219115257263e-01
8.559606969356536865e-02
-8.302413334604352713e-07
-2.492124736309051514e-01
8.625691384077072144e-02
-9.204709529876708984e-02
-9.101857244968414307e-02
1.708482205867767334e-02
-1.176818609237670898e-01
1.916957646608352661e-01
-1.775982906110584736e-03
6.141597777605056763e-02
2.524821460247039795e-01
-7.091630995273590088e-02
1.203955616801977158e-02
2.383265048265457153e-01
-2.154761254787445068e-01
4.375228658318519592e-02
-9.399434179067611694e-02
-1.463159769773483276e-01
-9.841971844434738159e-02
-2.179685607552528381e-02
4.620639234781265259e-02
-1.125661805272102356e-01
-1.354438066482543945e-01
1.055181473493576050e-01
-5.492472648620605469e-02
-1.500276103615760803e-02
-2.752132341265678406e-02
3.890055418014526367e-02
2.720678970217704773e-02
2.521832287311553955e-02
-1.989053487777709961e-01
-1.698223799467086792e-01
2.463694848120212555e-02
1.153727322816848755e-01
-1.077529564499855042e-01
-1.410852670669555664e-01
-6.806670129299163818e-02
2.079671174287796021e-01
6.547886133193969727e-02
-1.566393077373504639e-01
-6.745863705873489380e-02
-1.753356754779815674e-01
4.911556839942932129e-02
-5.133287236094474792e-02
-3.482767939567565918e-02
1.048512682318687439e-01
-5.767533928155899048e-02
1.322503536939620972e-01
9.724299609661102295e-02
1.993847787380218506e-01
1.162107214331626892e-01
-1.176263839006423950e-01
5.799540504813194275e-02
-2.366747558116912842e-01
-9.236077219247817993e-02
-7.804146967828273773e-03
-9.307640045881271362e-02
-8.117146044969558716e-02
6.447906792163848877e-02
6.768551468849182129e-02
-1.267922669649124146e-01
5.632615089416503906e-02
-4.296775162220001221e-02
1.111679989844560623e-02
-5.938977003097534180e-02
1.691150362603366375e-03
-5.480617284774780273e-02
-1.431548446416854858e-01
1.460012048482894897e-02
-1.459844857454299927e-01
-1.131041273474693298e-01
-7.199774682521820068e-02
-7.283746451139450073e-02
2.407626248896121979e-02
6.737222429364919662e-03
-2.719535678625106812e-02
6.500957161188125610e-02
-2.281946316361427307e-02
4.472507163882255554e-02
1.532824430614709854e-02
-1.012394875288009644e-01
-2.355594038963317871e-01
-3.900661692023277283e-02
-7.412432134151458740e-02
2.115252800285816193e-02
-8.206370472908020020e-02
-1.289268881082534790e-01
1.256599128246307373e-01
4.336104542016983032e-02
-6.389490514993667603e-02
2.137857116758823395e-02
-8.533360064029693604e-02
-2.133022621273994446e-02
-4.888942837715148926e-02
1.051226854324340820e-01
-5.248121172189712524e-02
-1.527516245841979980e-01
-1.086208649212494493e-04
5.248127505183219910e-02
6.083183735609054565e-02
3.787724766880273819e-03
-1.564423739910125732e-02
2.068292722105979919e-02
-2.437100932002067566e-02
7.862967252731323242e-02
-1.789237111806869507e-01
-1.822100020945072174e-02
-6.268791854381561279e-02
1.156012266874313354e-01
5.537120997905731201e-02
1.072372272610664368e-01
1.850489713251590729e-02
-1.198341771960258484e-01
-1.704364083707332611e-02
-8.730322867631912231e-02
2.284194976091384888e-01
-1.847102791070938110e-01
-5.934427306056022644e-02
2.266241051256656647e-02
-1.351441144943237305e-01
1.451482176780700684e-01
-2.075574547052383423e-02
-9.574960917234420776e-02
1.031921524554491043e-02
-2.000272423028945923e-01
-1.370183527469635010e-01
-5.684676021337509155e-02
2.117093652486801147e-01
3.315060585737228394e-02
-1.419643014669418335e-01
2.558856606483459473e-01
-1.087004616856575012e-01
6.974751502275466919e-02
4.324788227677345276e-02
1.473691463470458984e-01
-1.601955480873584747e-02
1.491037756204605103e-01
1.080659031867980957e-01
-4.538907855749130249e-02
8.515461534261703491e-02
5.161923915147781372e-02
5.529746040701866150e-02
-2.962769567966461182e-01
-6.592219229787588120e-03
-1.239237785339355469e-01
-1.424578726291656494e-01
1.654313690960407257e-02
2.310516429133713245e-04
-6.570754200220108032e-02
-8.061050437390804291e-03
-1.339957416057586670e-01
-1.955147236585617065e-01
3.047372028231620789e-02
-2.125934213399887085e-01
4.660092294216156006e-02
-2.981776297092437744e-01
-2.865176834166049957e-02
-9.559156745672225952e-02
1.748443692922592163e-01
1.463215053081512451e-02
8.071152865886688232e-02
-8.853491395711898804e-03
-2.785017900168895721e-02
-2.125893160700798035e-02
-1.860640496015548706e-01
-4.856754094362258911e-02
-3.568623661994934082e-01
8.061288297176361084e-02
-2.608045563101768494e-02
2.983631193637847900e-02
-1.255535185337066650e-01
-1.286924630403518677e-01
-2.155541628599166870e-01
-5.473815836012363434e-03
-7.778403162956237793e-02
-4.302852228283882141e-02
-1.797395050525665283e-01
-1.810303330421447754e-02
-1.075498983263969421e-01
-1.280468255281448364e-01
-2.007476985454559326e-01
1.113632321357727051e-01
-3.578684329986572266e-01
-9.349936619400978088e-03
5.565099883824586868e-03
-5.403356999158859253e-02
-7.057886570692062378e-02
-4.030906595289707184e-03
-8.144583553075790405e-02
-5.473553389310836792e-02
-6.378006190061569214e-02
-4.405096638947725296e-03
1.855460368096828461e-02
-2.704188823699951172e-01
7.602135837078094482e-02
-1.040903180837631226e-01
2.260957472026348114e-02
1.140548288822174072e-01
1.884009689092636108e-02
1.605236157774925232e-02
1.938403248786926270e-01
1.084279492497444153e-01
-1.141903027892112732e-01
-6.762372702360153198e-02
-8.444420248270034790e-02
-5.397852510213851929e-05
-1.842443495988845825e-01
-1.045225113630294800e-01
-1.693472964689135551e-03
3.903998062014579773e-02
-7.347490638494491577e-02
-3.708288446068763733e-02
-2.995635382831096649e-02
5.926013365387916565e-02
1.025827229022979736e-01
-7.878124713897705078e-02
8.491694927215576172e-02
2.187035232782363892e-01
-5.811957269906997681e-02
-1.798552274703979492e-01
-1.162539198994636536e-01
1.333755850791931152e-01
7.049652934074401855e-02
8.941949903964996338e-02
9.139911085367202759e-02
-1.553386300802230835e-01
7.868855446577072144e-02
7.296361774206161499e-02
-6.783668696880340576e-02
-8.964484184980392456e-02
-2.524382472038269043e-01
1.089407280087471008e-01
-6.513619422912597656e-02
3.496165573596954346e-02
-2.871791645884513855e-02
-4.625153914093971252e-02
-8.955223113298416138e-02
3.299478068947792053e-02
8.164913207292556763e-02
1.007512807846069336e-01
-6.329361349344253540e-02
1.460318863391876221e-01
-6.506094359792768955e-04
3.116443986073136330e-03
-2.444583736360073090e-02
1.542849689722061157e-01
-1.677861362695693970e-01
8.387797512114048004e-03
5.308447033166885376e-02
-1.413277387619018555e-01
-8.552739024162292480e-02
-8.686283603310585022e-03
-1.789596080780029297e-01
4.793499410152435303e-02
-4.665518552064895630e-02
1.229978948831558228e-01
1.295009255409240723e-01
4.608300700783729553e-02
6.813695281744003296e-02
-1.864446401596069336e-01
-2.006018348038196564e-02
4.932393319904804230e-03
1.174243763089179993e-01
-1.122153326869010925e-01
7.933368906378746033e-03
1.490100771188735962e-01
1.803004443645477295e-01
-7.193168252706527710e-02
-1.684560328722000122e-01
1.686717011034488678e-02
-3.996734917163848877e-01
1.700215488672256470e-01
-1.892329305410385132e-01
-3.194169327616691589e-02
3.808840736746788025e-02
-2.786606363952159882e-02
1.102336570620536804e-01
-3.623138070106506348e-01
9.431833773851394653e-02
-2.531348466873168945e-01
5.732981115579605103e-02
-6.868478655815124512e-02
-1.807279288768768311e-01
-9.426657855510711670e-02
-2.604843378067016602e-01
-3.618374094367027283e-02
-1.059702858328819275e-01
-1.606988310813903809e-01
4.185409843921661377e-02
2.515400946140289307e-02
5.327209830284118652e-03
-2.434393167495727539e-01
1.466278880834579468e-01
-1.394861936569213867e-01
2.347932606935501099e-01
-4.405819997191429138e-02
-2.743208780884742737e-02
-2.828032076358795166e-01
-2.018783986568450928e-02
-2.790839970111846924e-02
-4.181727021932601929e-02
-6.133405864238739014e-02
-1.039288714528083801e-01
-1.210417896509170532e-01
-1.442397385835647583e-01
1.760339438915252686e-01
7.832106202840805054e-02
4.106158018112182617e-02
-3.085791505873203278e-02
-1.285545378923416138e-01
-1.928512156009674072e-01
-1.466547045856714249e-02
-2.313651889562606812e-01
1.492166817188262939e-01
-2.833920121192932129e-01
-5.493636429309844971e-02
8.037859946489334106e-02
-1.759616583585739136e-01
-1.082788184285163879e-01
6.064489111304283142e-02
1.230562701821327209e-01
-5.771142989397048950e-02
7.896992564201354980e-02
-1.420948356389999390e-01
-2.630794048309326172e-01
-1.744650155305862427e-01
-2.090719044208526611e-01
-5.263846740126609802e-02
2.847564406692981720e-02
-5.008072406053543091e-02
-1.190637648105621338e-01
1.465621870011091232e-02
-9.362497925758361816e-02
-7.329609245061874390e-02
-4.566176235675811768e-02
1.217188984155654907e-01
-1.181262657046318054e-01
-1.249041184782981873e-01
-1.011259704828262329e-01
-6.180886551737785339e-02
1.442367583513259888e-01
-5.568887665867805481e-02
2.300398647785186768e-01
-2.135297060012817383e-01
-1.655202805995941162e-01
-2.441691756248474121e-01
-1.858886331319808960e-02
-2.171252816915512085e-01
3.709730505943298340e-02
-7.476896047592163086e-02
-3.236561715602874756e-01
-1.576557457447052002e-01
-7.377707213163375854e-02
-4.055480659008026123e-02
-4.271763563156127930e-01
-4.810235649347305298e-02
-3.458264172077178955e-01
-4.533476009964942932e-02
-1.200590953230857849e-01
-2.443413808941841125e-02
-1.112592667341232300e-01
-1.133533045649528503e-01
-7.919516414403915405e-02
-1.908134967088699341e-01
-1.966172307729721069e-01
-3.774916231632232666e-01
-1.637116447091102600e-02
8.941398933529853821e-03
-2.090054303407669067e-01
3.736272454261779785e-02
-1.029266193509101868e-01
2.092181742191314697e-01
-9.572711586952209473e-02
-4.205250367522239685e-02
-1.685556024312973022e-01
-1.929719746112823486e-01
-1.721189543604850769e-02
-2.288293093442916870e-01
-1.124771609902381897e-01
-2.901702187955379486e-02
5.928379669785499573e-02
-1.427748948335647583e-01
5.658368580043315887e-03
1.258774995803833008e-01
8.738636225461959839e-02
-1.729723513126373291e-01
7.562761008739471436e-02
-2.302416227757930756e-02
-3.293630108237266541e-02
9.381101280450820923e-02
-1.657585985958576202e-02
7.836478948593139648e-02
2.488027513027191162e-01
3.322899714112281799e-02
6.311932951211929321e-02
-4.082308337092399597e-02
-5.487422458827495575e-03
1.886308006942272186e-02
1.200296799652278423e-03
1.419628560543060303e-01
-7.970372587442398071e-02
-2.223848402500152588e-01
-5.945035815238952637e-02
5.485560745000839233e-03
-1.028271019458770752e-02
-9.431268274784088135e-02
-1.148128136992454529e-01
7.102107256650924683e-02
-5.085350945591926575e-02
-2.509489059448242188e-01
1.152248606085777283e-01
1.950641125440597534e-01
6.515502929687500000e-02
1.166513748466968536e-02
9.901396185159683228e-02
-1.426252871751785278e-01
-4.486237838864326477e-02
5.078057199716567993e-02
1.671138219535350800e-02
-2.059395909309387207e-01
-2.074646651744842529e-01
-1.513646990060806274e-01
7.898561656475067139e-03
3.155657276511192322e-02
-8.479589968919754028e-02
-8.853454142808914185e-02
-1.360992789268493652e-01
6.999193225055932999e-03
-7.367908209562301636e-02
6.892716884613037109e-02
-1.470199376344680786e-01
1.094224452972412109e-01
9.222427383065223694e-03
1.997969448566436768e-01
-2.413856983184814453e-02
-1.299616098403930664e-01
4.511675611138343811e-02
-9.426884353160858154e-02
-7.063490152359008789e-02
-4.847079142928123474e-02
-2.224532067775726318e-01
-7.380358129739761353e-02
-1.156949251890182495e-01
-6.610535830259323120e-02
-1.634124219417572021e-01
5.678693950176239014e-02
-3.195395320653915405e-02
-1.466997861862182617e-01
2.690894603729248047e-01
-1.811662316322326660e-01
2.327931970357894897e-01
1.128881610929965973e-02
-2.956002652645111084e-01
5.957192555069923401e-02
-1.349810808897018433e-01
1.354050189256668091e-01
6.363613158464431763e-02
1.021496485918760300e-03
-1.109006926417350769e-01
3.881835192441940308e-02
1.405261829495429993e-02
-9.054140001535415649e-02
-2.092843651771545410e-01
-7.954844087362289429e-02
3.180131316184997559e-02
1.090921387076377869e-01
-8.061108738183975220e-02
-1.529078334569931030e-01
-9.663664549589157104e-02
3.629789873957633972e-02
2.371986359357833862e-01
-1.788188964128494263e-01
-1.063749790191650391e-01
-4.212838131934404373e-03
-2.615133225917816162e-01
-9.357463568449020386e-02
2.209589816629886627e-02
8.479186147451400757e-02
-1.185422241687774658e-01
-1.729493886232376099e-01
-1.155108027160167694e-02
-1.448513418436050415e-01
8.584936149418354034e-03
-2.334710210561752319e-02
-2.577202320098876953e-01
5.073448643088340759e-02
-5.939844623208045959e-02
-1.555416733026504517e-01
-3.987922891974449158e-02
1.708471626043319702e-01
-2.785010933876037598e-01
-9.149520099163055420e-02
1.245771814137697220e-02
-8.616453409194946289e-02
8.597385138273239136e-02
-4.065331444144248962e-02
7.105601578950881958e-02
2.379216067492961884e-02
-1.944919675588607788e-01
7.722814381122589111e-02
-9.290966391563415527e-02
4.419053345918655396e-02
-1.688917912542819977e-02
-3.786191577091813087e-03
3.481784835457801819e-02
6.787913292646408081e-02
4.625674709677696228e-02
3.443092282395809889e-04
-4.050274938344955444e-02
-3.175936266779899597e-02
-1.801778376102447510e-02
4.410594701766967773e-02
-2.954832464456558228e-02
-5.624349415302276611e-02
-9.021122008562088013e-02
-4.675507918000221252e-02
2.274184115231037140e-02
-4.438221454620361328e-02
-1.046138033270835876e-01
-5.752137396484613419e-03
-4.171219840645790100e-02
-2.810435928404331207e-02
-1.768170390278100967e-03
-1.204363908618688583e-02
-6.166884303092956543e-02
-5.727884545922279358e-02
1.899579353630542755e-02
-3.543756902217864990e-02
-4.673326760530471802e-02
-6.402010470628738403e-02
1.398472022265195847e-02
-2.175378985702991486e-02
1.669488660991191864e-02
-4.856366664171218872e-02
-1.402818411588668823e-01
-5.687514320015907288e-02
7.132303435355424881e-03
-9.413683414459228516e-02
2.551243640482425690e-02
1.682500541210174561e-02
1.151770260185003281e-02
-5.247543007135391235e-02
1.810083538293838501e-02
-7.472155243158340454e-02
9.490151889622211456e-03
-3.782835602760314941e-02
7.046946790069341660e-03
-7.098876684904098511e-02
1.338028162717819214e-02
-6.721948087215423584e-02
-8.825884014368057251e-02
5.190129950642585754e-02
1.248148158192634583e-01
-4.397770017385482788e-02
6.412153597921133041e-04
-1.901992782950401306e-02
5.832565203309059143e-02
1.442592777311801910e-02
-3.937087580561637878e-02
-1.186695415526628494e-03
-2.991739474236965179e-02
-4.922758787870407104e-02
-8.496467955410480499e-03
-8.581507951021194458e-02
-9.604346752166748047e-02
-8.633892983198165894e-02
1.148047205060720444e-02
7.305771857500076294e-02
-1.060948073863983154e-01
8.901485055685043335e-02
-2.389081520959734917e-03
8.722838759422302246e-02
-4.894013330340385437e-02
-2.242042496800422668e-02
-1.291650384664535522e-01
1.022605784237384796e-02
1.372210383415222168e-01
-1.281540989875793457e-01
2.677798271179199219e-02
-2.090214192867279053e-01
6.957130879163742065e-02
-4.016479849815368652e-02
-1.258516311645507812e-01
-4.811513423919677734e-02
-1.312081217765808105e-01
-1.260493397712707520e-01
-9.455236792564392090e-02
-1.077839359641075134e-02
-6.804811209440231323e-02
1.011552959680557251e-01
-1.858947277069091797e-01
1.248852536082267761e-01
4.617849364876747131e-02
6.163236685097217560e-03
-1.038313135504722595e-01
8.249440789222717285e-02
-6.527367234230041504e-02
-2.097135931253433228e-01
1.493332535028457642e-01
-6.158082187175750732e-02
-7.572601735591888428e-02
-6.646769493818283081e-02
-4.621781036257743835e-02
-2.844083011150360107e-01
9.318112581968307495e-02
6.208565831184387207e-02
-3.350739479064941406e-01
-2.203929126262664795e-01
1.169335246086120605e-01
1.372868474572896957e-02
-2.051362246274948120e-01
1.498934924602508545e-01
1.525632385164499283e-02
1.722688525915145874e-01
-6.791165471076965332e-02
-3.938125073909759521e-02
4.929433017969131470e-02
-7.875610888004302979e-02
-1.470989547669887543e-02
-8.796057105064392090e-02
-1.713907718658447266e-02
3.685721382498741150e-02
5.556880962103605270e-03
-9.183745086193084717e-02
-1.025264933705329895e-01
1.790254414081573486e-01
7.730242609977722168e-02
1.905932426452636719e-01
-6.151675805449485779e-02
-1.670298427343368530e-01
1.380447596311569214e-01
-2.351161241531372070e-01
-7.192906737327575684e-02
-6.942842900753021240e-02
-6.649592518806457520e-02
6.391960382461547852e-02
2.720592021942138672e-01
-8.027891814708709717e-02
3.904095292091369629e-02
8.719446510076522827e-02
-1.127917990088462830e-01
4.845285788178443909e-02
2.373025566339492798e-02
1.721068322658538818e-01
-3.675051778554916382e-02
2.678249962627887726e-02
1.603120006620883942e-02
-4.939727485179901123e-02
5.660084262490272522e-02
-3.288438543677330017e-02
8.069812506437301636e-02
7.453258335590362549e-02
7.843214273452758789e-02
-7.586418185383081436e-03
2.089374214410781860e-01
1.592210531234741211e-01
6.740842759609222412e-02
1.276758313179016113e-02
-2.404061853885650635e-01
-2.457325346767902374e-03
-4.419632628560066223e-02
-3.436648845672607422e-02
4.298987612128257751e-02
4.680159315466880798e-02
-1.376724392175674438e-01
-1.797590106725692749e-01
-4.836528003215789795e-02
1.782846078276634216e-02
-1.997796297073364258e-01
5.216604098677635193e-02
3.740214928984642029e-02
1.165752932429313660e-01
7.105305045843124390e-02
-1.681520938873291016e-01
-6.347266584634780884e-02
-4.016511887311935425e-02
3.541633486747741699e-02
8.987855166196823120e-03
4.601264372467994690e-02
-5.855679139494895935e-02
4.635120928287506104e-02
1.116637289524078369e-01
6.423468142747879028e-02
9.036339074373245239e-02
1.477833241224288940e-01
7.733332365751266479e-02
7.783348858356475830e-02
6.707824766635894775e-02
-1.178522557020187378e-01
2.043277025222778320e-01
1.254595816135406494e-01
1.965891271829605103e-01
-3.081848658621311188e-02
-1.436883062124252319e-01
-2.072412706911563873e-02
-2.109447121620178223e-01
-9.049109369516372681e-02
3.879032656550407410e-02
-1.665169447660446167e-01
1.927318722009658813e-01
4.115358367562294006e-02
1.850365428254008293e-03
8.698560297489166260e-02
-1.570861227810382843e-02
-9.367942065000534058e-02
-3.850125893950462341e-02
-1.898965090513229370e-01
5.367765575647354126e-02
-1.583830565214157104e-01
1.577711105346679688e-01
-2.147255241870880127e-01
7.125836610794067383e-02
-1.904808357357978821e-02
-4.393287748098373413e-02
8.391909301280975342e-02
-1.393768489360809326e-01
2.038255706429481506e-02
-5.300365388393402100e-02
1.894202083349227905e-01
4.707823693752288818e-02
-7.393413037061691284e-02
1.784422546625137329e-01
1.026512980461120605e-01
1.882502287626266479e-01
6.457105278968811035e-02
-5.001410469412803650e-02
4.990882426500320435e-02
-1.762274056673049927e-01
-4.856919497251510620e-02
-6.624222546815872192e-02
-8.765479922294616699e-02
8.010663837194442749e-02
2.388036437332630157e-02
-7.412330806255340576e-02
-1.126826554536819458e-02
5.786069203168153763e-03
-5.702165421098470688e-03
-1.039081066846847534e-01
2.576188370585441589e-02
-4.123050346970558167e-02
1.269135177135467529e-01
-3.288634717464447021e-01
1.990560591220855713e-01
-1.000779345631599426e-01
9.671529382467269897e-02
4.528207331895828247e-02
5.581512302160263062e-02
-6.439495086669921875e-02
5.137277022004127502e-02
-7.881573587656021118e-02
-3.102705627679824829e-02
-8.455935865640640259e-03
-6.655762437731027603e-03
-8.355461061000823975e-02
-2.714852988719940186e-01
-1.205704808235168457e-01
9.081634879112243652e-02
-2.404153794050216675e-01
4.735440760850906372e-02
4.545078799128532410e-02
-2.979746274650096893e-02
5.543522164225578308e-02
-1.757855266332626343e-01
-1.108791232109069824e-01
-6.518942862749099731e-02
-1.052823513746261597e-01
-1.119521930813789368e-01
-8.291980624198913574e-02
1.221328452229499817e-01
-2.601327188313007355e-02
-4.009430296719074249e-03
-7.749562710523605347e-02
-2.773849070072174072e-01
9.023172408342361450e-02
-1.193411946296691895e-01
3.748410940170288086e-02
1.107632517814636230e-01
1.028253361582756042e-01
-1.712158508598804474e-02
4.650044441223144531e-02
-6.109376251697540283e-02
-6.357769668102264404e-02
-2.517760097980499268e-01
-1.411523073911666870e-01
-9.905670583248138428e-02
1.059573367238044739e-01
-1.213076114654541016e-01
-2.489845268428325653e-02
6.261347979307174683e-02
2.579736523330211639e-02
1.952027380466461182e-01
-1.102491840720176697e-01
2.532901614904403687e-02
-1.668305844068527222e-01
-2.726512588560581207e-02
-1.548229008913040161e-01
-2.245830185711383820e-02
1.522063184529542923e-02
-1.862454116344451904e-01
7.420267444103956223e-03
-2.148434892296791077e-02
-3.374458104372024536e-02
3.526245057582855225e-02
-7.390091568231582642e-02
-1.542085856199264526e-01
-3.443865105509757996e-02
-2.143836170434951782e-01
-4.659560509026050568e-03
-7.092870026826858521e-02
1.782229915261268616e-02
5.746761802583932877e-03
-7.762537151575088501e-02
2.800178900361061096e-02
-2.657600641250610352e-01
-1.462625265121459961e-01
-2.678187331184744835e-03
-8.692172914743423462e-02
-1.101089492440223694e-01
-1.943214535713195801e-01
-5.369353294372558594e-02
-1.357498466968536377e-01
1.159601211547851562e-01
-2.260266840457916260e-01
6.615703552961349487e-02
-1.372409705072641373e-02
-1.370769292116165161e-01
-9.480097889900207520e-02
9.252025932073593140e-02
-1.210108175873756409e-01
-5.752302706241607666e-02
-3.836781904101371765e-02
5.611078813672065735e-02
2.815837860107421875e-01
2.719247899949550629e-02
1.673838794231414795e-01
8.163496106863021851e-02
7.939035445451736450e-02
2.298745512962341309e-01
1.054816618561744690e-01
-4.414484836161136627e-03
2.670482993125915527e-01
-1.472648382186889648e-01
3.512730449438095093e-02
-1.842740625143051147e-01
-1.656491160392761230e-01
2.303603570908308029e-03
-2.771064341068267822e-01
-2.692691050469875336e-02
1.330188363790512085e-01
1.082200482487678528e-01
-1.356001049280166626e-01
-1.528518740087747574e-02
6.857988983392715454e-02
-1.687099225819110870e-02
8.567301183938980103e-02
-1.296984255313873291e-01
-6.497764587402343750e-02
-3.402302786707878113e-02
7.850503921508789062e-02
1.731199212372303009e-02
-2.529561817646026611e-01
8.553256839513778687e-02
-3.674380481243133545e-02
-5.776535347104072571e-02
2.096097618341445923e-01
-9.684097766876220703e-02
-3.912359476089477539e-03
-6.985601037740707397e-02
-9.653940796852111816e-02
1.164471581578254700e-01
-1.297733187675476074e-01
1.859910637140274048e-01
-2.080606669187545776e-01
-7.758912164717912674e-03
1.465360820293426514e-01
1.091519147157669067e-01
-6.944247335195541382e-02
-1.111189275979995728e-01
8.398832380771636963e-02
8.137854933738708496e-02
1.218967214226722717e-01
-3.142777085304260254e-02
-1.135782618075609207e-02
4.713897779583930969e-02
-5.008000507950782776e-02
1.865906566381454468e-01
-2.900814265012741089e-02
-5.362705886363983154e-02
-2.193967849016189575e-01
1.379836350679397583e-01
-6.662072241306304932e-02
7.308498024940490723e-02
1.168159674853086472e-02
8.052828162908554077e-02
1.311543732881546021e-01
1.329555511474609375e-01
-5.900285392999649048e-02
-1.570485830307006836e-01
-1.045552864670753479e-01
1.402732133865356445e-01
-1.346407979726791382e-01
-1.688232272863388062e-02
-1.692635864019393921e-01
3.371206670999526978e-02
3.666336089372634888e-02
-3.606662899255752563e-02
5.120662506669759750e-03
-8.763973601162433624e-03
-1.376156806945800781e-01
-1.157737299799919128e-01
-1.299438811838626862e-02
1.919433474540710449e-02
-2.631119452416896820e-03
8.804858475923538208e-02
1.412302106618881226e-01
5.559383705258369446e-02
1.864051520824432373e-01
5.489843338727951050e-02
-5.171850696206092834e-02
-1.801098287105560303e-01
-6.049883365631103516e-02
-2.173373997211456299e-01
-8.838672935962677002e-02
-1.034177243709564209e-01
8.565682917833328247e-02
2.684431709349155426e-02
8.848428726196289062e-02
6.585170049220323563e-03
1.013806387782096863e-01
-2.509416639804840088e-02
-9.839569777250289917e-02
3.973884880542755127e-02
2.364101856946945190e-01
-1.616623848676681519e-01
1.685016155242919922e-01
8.938836306333541870e-02
-1.373341865837574005e-02
6.480294466018676758e-02
-1.362108718603849411e-02
-1.945004612207412720e-02
-1.291905343532562256e-02
-1.554049924015998840e-02
8.397753536701202393e-02
-6.471163779497146606e-02
1.079847365617752075e-01
1.597521752119064331e-01
-2.466366067528724670e-02
1.234997762367129326e-03
-1.051753982901573181e-01
-6.881969422101974487e-02
2.078460752964019775e-01
-1.353089809417724609e-01
-1.538720577955245972e-01
-1.480803042650222778e-01
6.386313587427139282e-02
-9.562993794679641724e-02
-5.518344417214393616e-02
-1.074573248624801636e-01
9.084112942218780518e-03
3.371890634298324585e-02
-1.754543036222457886e-01
-2.100842595100402832e-01
2.632945403456687927e-02
-4.584095440804958344e-03
-2.215744182467460632e-02
-2.334398180246353149e-01
-1.335988193750381470e-01
-7.826278358697891235e-02
-2.285487391054630280e-02
-1.136842966079711914e-01
-6.386471539735794067e-02
-4.131675064563751221e-01
5.548522621393203735e-02
1.464836597442626953e-01
2.390935420989990234e-01
1.653066873550415039e-01
6.107385084033012390e-02
-3.057294785976409912e-01
-6.078794971108436584e-02
1.722440272569656372e-01
-9.103714674711227417e-02
-2.340411394834518433e-01
1.410085111856460571e-01
-1.183296069502830505e-01
-9.824794530868530273e-02
-5.153003707528114319e-02
-1.008489876985549927e-01
-1.865140907466411591e-02
-3.014478087425231934e-02
1.226369813084602356e-01
1.267606914043426514e-01
5.662112310528755188e-02
7.215834408998489380e-02
1.131830513477325439e-01
2.599267065525054932e-01
-4.000184312462806702e-02
-2.390492334961891174e-02
-1.471385210752487183e-01
1.643500924110412598e-01
-7.198347151279449463e-02
7.532717287540435791e-02
-1.571269333362579346e-01
-1.153184995055198669e-01
-9.730791673064231873e-03
-5.657283961772918701e-02
-1.274252831935882568e-01
-1.263659000396728516e-01
1.616758406162261963e-01
-2.961223423480987549e-01
1.358614023774862289e-02
-1.075269132852554321e-01
1.201147288084030151e-01
1.427809149026870728e-01
-3.503416478633880615e-01
-8.128163963556289673e-02
-8.861117064952850342e-02
6.913428008556365967e-02
-2.154769301414489746e-01
-1.242267191410064697e-01
9.062072634696960449e-02
-3.617123067378997803e-01
-4.169569537043571472e-02
1.228617131710052490e-01
-2.355003729462623596e-02
-8.824543654918670654e-02
-7.763928174972534180e-02
-5.488045886158943176e-02
4.631176590919494629e-02
2.798318304121494293e-02
1.374903917312622070e-01
1.702637523412704468e-01
3.249158337712287903e-02
7.210702449083328247e-02
-3.121303766965866089e-02
-5.539225041866302490e-02
-4.001526907086372375e-02
3.849939967039972544e-04
8.037606626749038696e-02
-3.327077627182006836e-01
1.139176264405250549e-01
9.961856901645660400e-02
-2.991681173443794250e-02
-1.400622259825468063e-02
2.520359307527542114e-02
-2.448201328516006470e-01
-9.613344818353652954e-02
1.056128069758415222e-01
2.115397304296493530e-01
-8.504381775856018066e-02
2.517908513545989990e-01
-1.369617879390716553e-02
-2.009644061326980591e-01
-2.798308134078979492e-01
-5.521221086382865906e-02
-2.645303606986999512e-01
3.947064280509948730e-03
1.745439320802688599e-01
3.930381312966346741e-02
-1.386175900697708130e-01
-7.427362352609634399e-02
-1.205708608031272888e-01
-7.044932339340448380e-03
9.599111974239349365e-02
1.521558612585067749e-01
-5.692228674888610840e-02
5.442612618207931519e-02
7.159473001956939697e-02
1.788087636232376099e-01
5.532651767134666443e-02
1.950301229953765869e-01
1.101871207356452942e-01
-1.484731882810592651e-01
4.529936611652374268e-02
1.413265019655227661e-01
-3.401340544223785400e-02
-2.234500274062156677e-02
1.244301274418830872e-01
-1.141153648495674133e-01
-2.866153046488761902e-02
6.192174740135669708e-03
-7.040257751941680908e-02
-7.749182730913162231e-02
1.234590169042348862e-02
-6.359651684761047363e-02
1.429316401481628418e-01
-6.025618314743041992e-02
1.068185791373252869e-01
2.071148604154586792e-01
8.872228860855102539e-02
-1.053887456655502319e-01
2.285949140787124634e-01
-3.229708597064018250e-02
1.713468879461288452e-01
-2.729455530643463135e-01
-6.714738905429840088e-03
-9.760081768035888672e-02
1.823455542325973511e-01
1.039921194314956665e-01
-7.265536487102508545e-02
-2.821195125579833984e-01
-3.740122914314270020e-02
2.362097054719924927e-01
-5.014342069625854492e-02
1.286716312170028687e-01
5.924093723297119141e-02
-4.251131415367126465e-01
-1.346111595630645752e-01
1.277478784322738647e-01
-2.632931061089038849e-02
-1.855171322822570801e-01
3.870175406336784363e-02
-1.415075212717056274e-01
5.258078500628471375e-02
-2.203794568777084351e-01
6.472302973270416260e-02
-9.011979401111602783e-02
-8.672785758972167969e-02
3.889848245307803154e-03
5.140053108334541321e-02
2.183023244142532349e-01
2.109671980142593384e-01
-1.908349096775054932e-01
1.730219125747680664e-01
4.727071151137351990e-02
-6.164524331688880920e-02
-2.656672708690166473e-02
-1.948450207710266113e-01
-4.034756869077682495e-02
9.235240519046783447e-02
-7.000940293073654175e-02
-1.499552652239799500e-02
-1.412514150142669678e-01
-1.341107022017240524e-02
2.263144105672836304e-01
9.551365673542022705e-02
1.218007653951644897e-01
-2.656852640211582184e-02
-1.619374155998229980e-01
6.981678307056427002e-02
-5.524167791008949280e-02
-3.069432377815246582e-01
-3.531560897827148438e-01
-3.028395771980285645e-01
4.450329579412937164e-03
7.123318035155534744e-03
-2.380157858133316040e-01
-6.230733171105384827e-02
7.625657320022583008e-02
-3.212553262710571289e-01
1.871802657842636108e-02
-3.127136826515197754e-02
-1.417067088186740875e-02
2.164920233190059662e-02
-1.887584328651428223e-01
-8.184479922056198120e-02
-2.370222061872482300e-01
-5.857563391327857971e-02
3.252630680799484253e-02
-5.038316547870635986e-02
-8.194313943386077881e-02
4.607154056429862976e-03
8.856034278869628906e-02
1.401922255754470825e-01
-1.160589903593063354e-01
-1.172705888748168945e-01
1.933529675006866455e-01
-2.930948436260223389e-01
-5.712380260229110718e-02
4.377652076072990894e-04
-2.536910474300384521e-01
-2.217270880937576294e-01
1.225330084562301636e-01
-7.956498116254806519e-02
-9.470527619123458862e-02
1.286051888018846512e-02
7.137615233659744263e-02
-4.991739243268966675e-02
1.684878617525100708e-01
-8.245536684989929199e-02
-7.218910008668899536e-02
-8.931096643209457397e-02
-7.899539917707443237e-02
-1.281722784042358398e-01
-2.304792702198028564e-01
4.055720940232276917e-02
1.385964155197143555e-01
-2.546872794628143311e-01
-1.440664976835250854e-01
-1.661768853664398193e-01
1.305968761444091797e-01
-1.184367761015892029e-02
-6.737563014030456543e-02
1.493287086486816406e-01
-3.547758609056472778e-02
1.363294571638107300e-01
9.148710221052169800e-02
7.380697876214981079e-02
4.604432359337806702e-02
-4.049425944685935974e-02
-1.680403798818588257e-01
1.149650588631629944e-01
8.577100932598114014e-02
1.175817251205444336e-01
-1.070255488157272339e-01
-2.360441535711288452e-02
-1.214501410722732544e-01
-9.573135524988174438e-02
-4.876623302698135376e-02
-2.619427442550659180e-02
-8.181171119213104248e-02
2.127067418769001961e-03
4.898053780198097229e-02
-2.413038462400436401e-01
-1.239962801337242126e-01
-9.759707003831863403e-02
9.135512262582778931e-02
-5.879261530935764313e-03
-5.589051172137260437e-02
1.214690040796995163e-02
-9.710203111171722412e-02
8.916949480772018433e-02
-5.985527485609054565e-02
1.582406014204025269e-01
-1.139417216181755066e-01
2.378410249948501587e-01
-2.400787547230720520e-02
8.438342064619064331e-02
-2.174160033464431763e-01
-1.201188638806343079e-01
2.018976509571075439e-01
-7.426147162914276123e-02
4.537169262766838074e-02
6.989496201276779175e-02
-7.776963710784912109e-02
-1.343269497156143188e-01
1.824371889233589172e-02
-8.239261060953140259e-02
-1.141348108649253845e-01
5.796592682600021362e-02
-1.409822795540094376e-02
8.225577324628829956e-02
1.596564054489135742e-01
-3.942320868372917175e-02
2.023003622889518738e-02
-1.221363469958305359e-01
2.054492756724357605e-02
-2.400971651077270508e-01
-1.773643344640731812e-01
1.266167759895324707e-01
-8.667061477899551392e-02
-1.647710353136062622e-01
-7.525341212749481201e-02
-6.649335473775863647e-02
1.174446567893028259e-01
1.683841459453105927e-02
1.557211875915527344e-01
-7.369827479124069214e-02
6.261890381574630737e-02
4.686747863888740540e-02
1.601113229990005493e-01
-1.028933525085449219e-01
-1.240674126893281937e-02
3.917197883129119873e-02
4.083554074168205261e-02
1.564784049987792969e-01
1.035525351762771606e-01
-8.148990571498870850e-02
5.603288114070892334e-02
3.226266056299209595e-02
1.014942582696676254e-02
-1.151673272252082825e-01
-5.587241053581237793e-02
4.846663028001785278e-02
-9.015383571386337280e-02
-1.834743469953536987e-01
1.092461049556732178e-01
1.247190833091735840e-01
8.836235105991363525e-02
1.565684676170349121e-01
-1.421038359403610229e-01
5.357425287365913391e-02
-2.856107354164123535e-01
-1.624390631914138794e-01
-2.653579413890838623e-02
-3.751302137970924377e-02
1.074846312403678894e-01
-4.982601106166839600e-02
1.055394709110260010e-01
-4.126508906483650208e-02
2.283176779747009277e-02
1.321194916963577271e-01
7.148328423500061035e-02
1.753273606300354004e-01
-3.790370002388954163e-02
-2.508416213095188141e-02
1.439601462334394455e-02
1.005695983767509460e-01
1.349444091320037842e-01
-2.544487416744232178e-01
3.548416867852210999e-02
-1.544751971960067749e-01
1.139699965715408325e-01
-7.018254697322845459e-02
-4.094843752682209015e-03
6.372119486331939697e-02
-2.515689842402935028e-02
-1.779862195253372192e-01
6.769616901874542236e-02
2.580609731376171112e-02
-5.974271520972251892e-02
-1.559942066669464111e-01
-1.127347070723772049e-02
1.108806207776069641e-01
-2.237315922975540161e-01
-4.606986045837402344e-02
5.162967368960380554e-02
8.521523326635360718e-02
-2.897358871996402740e-02
-2.366375476121902466e-01
1.226854473352432251e-01
-4.871496558189392090e-02
2.212252169847488403e-01
-5.706786178052425385e-03
2.867119759321212769e-02
2.063998728990554810e-01
-4.919142276048660278e-02
1.363885402679443359e-01
-6.361421942710876465e-02
-1.645298600196838379e-01
2.417555078864097595e-03
-5.169648677110671997e-02
-4.484177380800247192e-02
-5.739403516054153442e-02
1.311834901571273804e-01
-2.281072922050952911e-02
-9.831429272890090942e-02
-1.721293032169342041e-01
-1.817189007997512817e-01
1.319496035575866699e-01
-4.162616678513586521e-04
-2.193857878446578979e-01
8.558727800846099854e-02
-5.284390971064567566e-02
2.307140082120895386e-01
6.012152880430221558e-02
1.195594891905784607e-01
-2.289381437003612518e-02
-7.266305387020111084e-02
-1.415199786424636841e-01
-3.324672281742095947e-01
-2.036053389310836792e-01
-2.036760747432708740e-01
-1.290884912014007568e-01
7.118193805217742920e-02
5.610228329896926880e-02
-3.706987947225570679e-02
-1.269422620534896851e-01
1.724225133657455444e-01
-2.601983845233917236e-01
5.306858941912651062e-02
-1.213376000523567200e-01
-2.907817065715789795e-01
2.347765713930130005e-01
5.452778562903404236e-02
1.047283038496971130e-01
-1.408837735652923584e-01
6.891293823719024658e-02
1.484877616167068481e-01
3.159986808896064758e-02
8.860029280185699463e-02
-1.532128602266311646e-01
-1.275271922349929810e-01
-1.068747192621231079e-01
-1.124362181872129440e-02
-4.506983235478401184e-02
-1.152551099658012390e-01
-5.925354734063148499e-02
3.185122506693005562e-03
-2.087838202714920044e-01
3.284366428852081299e-02
1.688078045845031738e-01
1.484411805868148804e-01
9.365760535001754761e-02
-6.917615886777639389e-03
1.142293438315391541e-01
-3.468650281429290771e-01
-5.234044045209884644e-02
7.967788726091384888e-02
1.745785325765609741e-01
-6.787250190973281860e-02
6.598147749900817871e-02
-9.598521143198013306e-02
4.671643953770399094e-03
1.790732443332672119e-01
2.468558847904205322e-01
1.646954119205474854e-01
-8.741130679845809937e-02
-9.215673804283142090e-02
1.909708790481090546e-02
1.269373297691345215e-01
-2.739258110523223877e-01
7.155009359121322632e-02
4.547324031591415405e-02
-7.916168868541717529e-02
-5.282154679298400879e-02
-1.082369163632392883e-01
8.834460750222206116e-03
1.758976727724075317e-01
-9.937545657157897949e-02
1.078420728445053101e-01
-2.962338924407958984e-01
-1.476480215787887573e-01
-1.612289547920227051e-01
-3.042362332344055176e-01
-2.352814376354217529e-01
-6.817862391471862793e-02
-1.625298857688903809e-01
-6.813830137252807617e-02
4.100497346371412277e-03
-6.125618144869804382e-02
-8.570726960897445679e-02
-8.379325270652770996e-03
6.311240047216415405e-02
2.143078744411468506e-01
-1.619565188884735107e-01
-4.651563167572021484e-01
1.336203366518020630e-01
2.773658186197280884e-02
8.499204367399215698e-02
-1.991218179464340210e-01
6.998810917139053345e-02
-7.550279051065444946e-02
-4.987452551722526550e-02
-1.376157552003860474e-01
-1.031796783208847046e-01
-1.794539839029312134e-01
-1.895721107721328735e-01
2.039467394351959229e-01
-1.963138207793235779e-02
2.257206104695796967e-02
-1.005908101797103882e-01
-2.966647744178771973e-01
1.049016267061233521e-01
-4.297805950045585632e-02
1.318477243185043335e-01
5.477489903569221497e-03
2.032583951950073242e-01
-1.434785425662994385e-01
1.679644882678985596e-01
-3.384862840175628662e-01
-3.436153009533882141e-02
-1.078032925724983215e-01
3.983528539538383484e-02
-3.709436953067779541e-02
4.278573393821716309e-02
-1.276011019945144653e-01
-1.648249030113220215e-01
-4.019247740507125854e-02
4.731337353587150574e-02
1.270509660243988037e-01
-2.080557197332382202e-01
-4.850727617740631104e-01
-1.900429092347621918e-02
-8.751714229583740234e-02
3.093115985393524170e-02
1.066185161471366882e-02
-6.416935939341783524e-03
-5.709797888994216919e-02
-1.112548038363456726e-01
-4.201395809650421143e-02
-3.026316687464714050e-02
-1.945118755102157593e-01
-9.402748197317123413e-02
-3.583049029111862183e-02
6.256103515625000000e-02
-9.248241037130355835e-02
-1.325258165597915649e-01
4.978144913911819458e-02
6.889428943395614624e-02
5.636252835392951965e-02
4.617829248309135437e-02
7.365737855434417725e-02
-2.354845171794295311e-03
-4.614348709583282471e-02
-1.132599115371704102e-01
1.604393720626831055e-01
-1.042158305644989014e-01
-5.854593589901924133e-02
-1.091523095965385437e-02
4.253477603197097778e-02
-3.254573047161102295e-02
1.334703266620635986e-01
-1.062864437699317932e-01
1.106260158121585846e-02
-1.245057396590709686e-02
3.658079355955123901e-02
4.633751511573791504e-02
-7.516627199947834015e-03
-9.600861370563507080e-02
5.372242536395788193e-03
-4.213760420680046082e-02
5.214529111981391907e-02
-3.363250195980072021e-02
-2.163584530353546143e-01
1.166041344404220581e-01
-7.541567832231521606e-02
-7.979267835617065430e-02
-1.038548052310943604e-01
3.036068938672542572e-02
5.890750512480735779e-02
-1.329521685838699341e-01
-2.365366742014884949e-02
1.183974519371986389e-01
-1.810867711901664734e-02
1.323485225439071655e-01
5.474986508488655090e-02
-3.295592218637466431e-02
1.211480572819709778e-01
1.500669270753860474e-01
7.410422712564468384e-02
1.412260383367538452e-01
-6.131161749362945557e-02
1.165621131658554077e-01
9.040224552154541016e-02
-2.619002945721149445e-02
6.275405734777450562e-02
-3.323242813348770142e-02
5.129782110452651978e-02
-1.483614742755889893e-01
-1.527795642614364624e-01
1.701362878084182739e-01
2.016255632042884827e-02
4.761201795190572739e-03
1.725550442934036255e-01
4.351259674876928329e-03
5.007687956094741821e-02
5.376295745372772217e-02
2.329547703266143799e-02
1.955491676926612854e-02
-2.977618761360645294e-02
-1.330858021974563599e-01
-2.720927894115447998e-01
-2.571315318346023560e-02
-1.190479844808578491e-01
4.584871977567672729e-02
-2.768286131322383881e-02
2.696585841476917267e-02
-1.155887171626091003e-01
4.500327259302139282e-02
1.175796538591384888e-01
-2.536344826221466064e-01
-5.716091766953468323e-02
-2.507755346596240997e-02
-1.969990581274032593e-01
-1.740334928035736084e-01
-5.593049339950084686e-03
-1.237099319696426392e-01
-1.542565524578094482e-01
-2.321689575910568237e-02
2.483496367931365967e-01
8.208548277616500854e-02
-6.646510679274797440e-03
3.840067237615585327e-02
-6.880053132772445679e-02
3.378725796937942505e-02
8.057706058025360107e-02
-3.155454695224761963e-01
-4.768500477075576782e-02
7.990159094333648682e-03
7.475780695676803589e-02
-1.127158775925636292e-01
-7.116269320249557495e-02
-2.294872701168060303e-01
1.608469039201736450e-01
6.990621238946914673e-02
7.572627067565917969e-02
5.505497008562088013e-02
4.334655776619911194e-02
-1.086792200803756714e-01
1.093202084302902222e-01
2.296336367726325989e-02
7.014841586351394653e-02
1.123993620276451111e-01
3.685180470347404480e-02
2.402756735682487488e-02
-1.425294578075408936e-01
5.406524054706096649e-03
-1.687442138791084290e-02
1.478038262575864792e-02
-1.320362985134124756e-01
-2.628218755125999451e-02
-9.465029090642929077e-02
-1.646925657987594604e-01
-4.197660461068153381e-02
1.236839368939399719e-01
-1.222041472792625427e-01
3.825379535555839539e-02
-1.021126508712768555e-01
-2.893201261758804321e-02
3.286483511328697205e-02
-6.043919920921325684e-02
-3.557715415954589844e-01
1.233492866158485413e-01
-2.513591051101684570e-01
-1.060035303235054016e-01
4.431597888469696045e-03
-1.814215481281280518e-01
7.217120379209518433e-02
8.360797166824340820e-02
-3.323430567979812622e-02
6.320250779390335083e-02
-3.823663666844367981e-02
-1.087068952620029449e-02
1.929511874914169312e-01
-8.201514929533004761e-02
9.010145440697669983e-04
1.182839646935462952e-01
-1.479905694723129272e-01
-1.341090500354766846e-01
-8.702269941568374634e-02
-6.152791902422904968e-02
-6.439925730228424072e-02
6.498974561691284180e-02
-8.704370260238647461e-02
-4.189378768205642700e-02
-1.104091033339500427e-01
-1.971333473920822144e-01
1.868048459291458130e-01
3.721580281853675842e-02
-1.544132679700851440e-01
-2.139362320303916931e-02
-2.470638304948806763e-01
1.314700841903686523e-01
1.846360266208648682e-01
1.562906652688980103e-01
4.206506069749593735e-03
-9.615100920200347900e-02
1.975852698087692261e-01
2.434602081775665283e-01
-3.305850327014923096e-01
-2.560552954673767090e-01
-5.662401672452688217e-03
1.383929885923862457e-02
1.777253299951553345e-02
5.019998177886009216e-02
1.302746869623661041e-02
-1.320167779922485352e-01
4.626245237886905670e-03
1.481870710849761963e-01
1.053753048181533813e-01
2.785193920135498047e-01
5.405649915337562561e-02
-2.521974034607410431e-02
-1.838373690843582153e-01
6.990095227956771851e-02
-5.120457150042057037e-03
8.459037542343139648e-02
2.103059291839599609e-01
1.115631777793169022e-02
9.289469569921493530e-02
2.856400329619646072e-03
-1.133652254939079285e-01
4.317499324679374695e-02
2.086170613765716553e-01
-5.882924422621726990e-02
-1.917919963598251343e-01
-1.291601061820983887e-01
-1.224873811006546021e-01
-2.982965670526027679e-02
1.915085613727569580e-01
-6.686093658208847046e-02
-1.570028513669967651e-01
-1.204954162240028381e-01
5.470061674714088440e-02
3.618321195244789124e-02
1.634270548820495605e-01
2.901948988437652588e-02
-2.509434819221496582e-01
-1.771606318652629852e-02
-4.649459570646286011e-02
-2.468485981225967407e-01
-1.060970500111579895e-01
3.898397088050842285e-02
-1.593124493956565857e-02
-1.304951906204223633e-01
-2.206167131662368774e-01
-5.453726649284362793e-01
8.158382028341293335e-02
-1.795329302549362183e-01
-2.591410279273986816e-01
7.052689045667648315e-02
-3.533647581934928894e-02
2.318080514669418335e-02
-1.868900507688522339e-01
-1.132741346955299377e-01
-3.159479498863220215e-01
-3.962772712111473083e-02
-1.254700869321823120e-01
1.059257313609123230e-01
-1.329755336046218872e-01
-8.032557368278503418e-02
3.763879463076591492e-02
-7.960855960845947266e-02
-9.155856817960739136e-02
2.213081270456314087e-01
-1.054410338401794434e-01
2.494106888771057129e-01
-1.580433696508407593e-01
-1.796859353780746460e-01
-2.780936062335968018e-01
1.052484661340713501e-01
-1.448612362146377563e-01
8.061308413743972778e-02
-1.617295295000076294e-01
4.883926361799240112e-02
-1.429920375812798738e-04
-2.158539295196533203e-01
-1.621725410223007202e-01
1.443689595907926559e-02
-1.808416992425918579e-01
-2.024714052677154541e-01
1.018725614994764328e-02
-4.988240823149681091e-02
-9.396816790103912354e-02
-7.944856584072113037e-02
2.278248518705368042e-01
-4.933352023363113403e-02
1.052392199635505676e-01
-1.408483237028121948e-01
5.968256294727325439e-02
-6.788501888513565063e-02
-2.568864449858665466e-02
-2.629486918449401855e-01
7.032865285873413086e-02
-1.486580669879913330e-01
-1.104467362165451050e-01
-1.515513509511947632e-01
-4.917813464999198914e-02
-6.784142926335334778e-03
-1.795891672372817993e-01
-1.715216189622879028e-01
4.296776652336120605e-02
8.689417690038681030e-02
3.567556664347648621e-02
-1.691727489233016968e-01
-2.415618151426315308e-01
3.576570004224777222e-02
1.692742556333541870e-01
1.915272325277328491e-02
-1.784059405326843262e-01
2.632957696914672852e-01
-6.575937569141387939e-02
-1.061160191893577576e-01
-7.616951316595077515e-02
-1.298214346170425415e-01
1.075238958001136780e-01
-1.053650304675102234e-01
-1.471289545297622681e-01
-1.478584855794906616e-01
6.566961854696273804e-02
-1.044331192970275879e-01
-1.772886663675308228e-01
2.396260052919387817e-01
-1.796699315309524536e-01
2.713685929775238037e-01
-1.140306442975997925e-01
2.311147749423980713e-01
-1.597501188516616821e-01
1.252814084291458130e-01
-1.589826047420501709e-01
2.486914023756980896e-02
-1.183072924613952637e-01
-1.103667616844177246e-01
-3.516289219260215759e-02
1.235446706414222717e-01
-1.169817224144935608e-01
-3.454308956861495972e-02
6.250146031379699707e-02
-2.141353115439414978e-02
-7.986662536859512329e-02
8.661616593599319458e-02
-3.352211713790893555e-01
1.127169951796531677e-01
1.122438311576843262e-01
-2.580086588859558105e-01
-3.098645210266113281e-01
1.439074724912643433e-01
2.062346041202545166e-02
-1.563699245452880859e-01
-2.004011906683444977e-02
-8.012097328901290894e-02
9.854201227426528931e-02
-1.704175174236297607e-01
1.583412736654281616e-01
-1.855876669287681580e-02
-1.805535107851028442e-01
-1.181147471070289612e-01
-9.842401742935180664e-02
-1.267698556184768677e-01
-1.812631189823150635e-01
2.411196008324623108e-02
4.603796452283859253e-02
2.772076986730098724e-02
-1.468713879585266113e-01
2.803629636764526367e-02
-1.283842176198959351e-01
-3.067404925823211670e-01
1.749630421400070190e-01
-2.093455493450164795e-01
-1.253311634063720703e-01
1.669159829616546631e-01
-8.414269238710403442e-02
-5.568598955869674683e-02
-1.766851842403411865e-01
1.127669662237167358e-01
-1.111452654004096985e-01
-3.709422051906585693e-02
-6.136015430092811584e-02
-1.943109780550003052e-01
-1.360093504190444946e-01
-3.360726870596408844e-03
6.904349476099014282e-02
-1.192618831992149353e-01
3.380731493234634399e-02
-8.975566178560256958e-02
-4.205418750643730164e-02
1.898465752601623535e-01
1.451264787465333939e-02
4.347994923591613770e-02
7.127200812101364136e-02
-6.818690896034240723e-02
-8.260071277618408203e-02
2.156002819538116455e-01
8.099581301212310791e-02
-2.283436655998229980e-01
-2.347471863031387329e-01
8.202709257602691650e-03
-7.813490182161331177e-02
1.276815533638000488e-01
-8.926263451576232910e-02
-4.197279736399650574e-02
8.414798229932785034e-02
-1.719549149274826050e-01
6.823352724313735962e-02
-3.938395082950592041e-01
-1.050655320286750793e-01
-4.074846580624580383e-02
-4.812440276145935059e-02
-2.172398418188095093e-01
7.143156230449676514e-02
-1.016567200422286987e-01
1.039297804236412048e-01
-2.227004468441009521e-01
-1.341962665319442749e-01
-5.939354002475738525e-02
-5.272248387336730957e-02
1.304607093334197998e-01
1.618832647800445557e-01
-3.874702751636505127e-02
-4.529634118080139160e-01
-9.644158184528350830e-02
4.497353360056877136e-02
7.024533115327358246e-03
1.758355051279067993e-01
1.049913167953491211e-01
7.033272646367549896e-03
1.466745287179946899e-01
-1.924484223127365112e-01
-4.139418900012969971e-02
-1.247076466679573059e-01
3.437026739120483398e-01
3.611269220709800720e-02
-3.221772611141204834e-01
-2.670216858386993408e-01
-2.222961187362670898e-01
-1.123662889003753662e-01
7.877314090728759766e-02
-1.460587084293365479e-01
8.838285505771636963e-02
-4.379889965057373047e-01
-1.349799931049346924e-01
-2.676244974136352539e-01
1.445659548044204712e-01
-1.622922122478485107e-01
-1.879268209449946880e-03
-2.742961794137954712e-02
-3.265402913093566895e-01
-1.283371448516845703e-02
5.223807319998741150e-02
-4.023875668644905090e-02
-3.720312565565109253e-02
-2.975350022315979004e-01
1.102779582142829895e-01
-1.584842801094055176e-01
1.764374375343322754e-01
-1.060981862246990204e-02
-1.549358516931533813e-01
-1.653684824705123901e-01
-5.587717890739440918e-02
-1.332734338939189911e-02
9.395594708621501923e-03
-1.414934098720550537e-01
-1.679720133543014526e-01
-1.433245986700057983e-01
-1.196789816021919250e-01
5.900436639785766602e-02
1.225789859890937805e-01
3.850069595500826836e-03
-3.106963355094194412e-03
-3.259203732013702393e-01
1.116063632071018219e-02
7.178659737110137939e-02
-1.258264183998107910e-01
-1.885750442743301392e-01
1.828189752995967865e-02
-1.284217238426208496e-01
9.036365896463394165e-02
5.097208078950643539e-03
7.470110803842544556e-02
-1.302870512008666992e-01
-1.139843091368675232e-02
-2.161662578582763672e-01
-2.464369870722293854e-02
1.031576655805110931e-02
1.766034066677093506e-01
1.238681748509407043e-01
9.823157452046871185e-04
1.045270711183547974e-01
-6.313724815845489502e-02
1.285808533430099487e-01
1.466544568538665771e-01
-3.741878271102905273e-02
2.638709358870983124e-02
1.999347209930419922e-01
-2.609161734580993652e-01
1.169583871960639954e-01
-1.000546663999557495e-01
-8.636578917503356934e-02
-1.914457082748413086e-01
-7.032562047243118286e-02
-6.550210714340209961e-02
-1.129156798124313354e-01
-1.339380294084548950e-01
1.798504590988159180e-01
6.712404638528823853e-02
-9.650803357362747192e-02
-2.470919303596019745e-02
-3.740666061639785767e-02
7.203970104455947876e-02
4.286634176969528198e-02
-8.821235597133636475e-02
-1.318279057741165161e-01
-4.299785010516643524e-03
6.871012039482593536e-03
-1.754496544599533081e-01
-2.190724164247512817e-01
-2.195397168397903442e-01
-1.233208924531936646e-02
8.006130158901214600e-02
-2.426887899637222290e-01
-1.095810458064079285e-01
3.887114673852920532e-02
3.583782818168401718e-03
9.230726957321166992e-02
1.146995872259140015e-01
-1.006845608353614807e-01
2.566276118159294128e-03
-3.028824366629123688e-02
2.304135076701641083e-02
-1.598465144634246826e-01
3.548013418912887573e-02
-7.568731158971786499e-02
-1.217242553830146790e-01
-7.049267739057540894e-02
-8.274410665035247803e-02
3.555074706673622131e-02
9.293469786643981934e-02
2.570240758359432220e-02
-1.362445354461669922e-01
-1.959325559437274933e-02
-1.101981624960899353e-01
-4.377637803554534912e-02
6.539306044578552246e-02
3.963431715965270996e-02
6.073914468288421631e-02
-3.730533421039581299e-01
9.731019288301467896e-02
5.820339918136596680e-02
5.180673673748970032e-02
1.247717142105102539e-01
9.238469600677490234e-02
-8.776894956827163696e-02
-3.772172331809997559e-02
-3.900772333145141602e-02
3.898746147751808167e-02
5.981428176164627075e-02
-2.996634691953659058e-03
1.703710108995437622e-02
-2.147728502750396729e-01
-1.270002573728561401e-01
3.031902760267257690e-02
8.874123543500900269e-02
-4.275691136717796326e-02
-6.537850946187973022e-02
-4.547174647450447083e-02
1.443256158381700516e-02
1.275525838136672974e-01
-3.435696363449096680e-01
1.236203163862228394e-01
3.438335657119750977e-02
2.182188816368579865e-02
-2.115706801414489746e-01
-3.100201115012168884e-02
-9.204881638288497925e-02
-2.239114604890346527e-03
-1.131113395094871521e-01
-2.412954904139041901e-02
-1.485754251480102539e-01
1.510291844606399536e-01
-8.690416067838668823e-02
-6.176157668232917786e-02
-4.734943434596061707e-02
-1.754320263862609863e-01
-1.567036472260951996e-02
6.779067963361740112e-02
1.452980469912290573e-02
2.409923821687698364e-01
9.949374943971633911e-02
1.474489867687225342e-01
-5.476285144686698914e-02
-6.998685654252767563e-03
8.714281022548675537e-02
-2.199597358703613281e-01
-2.014119476079940796e-01
-2.568435072898864746e-01
-6.690783053636550903e-02
-1.611335873603820801e-01
7.101251184940338135e-02
-3.169170022010803223e-01
3.046159632503986359e-02
-1.912515908479690552e-01
1.821090877056121826e-01
3.633407875895500183e-02
1.486014723777770996e-01
-3.114545941352844238e-01
4.711660370230674744e-02
3.562441095709800720e-02
1.634005904197692871e-01
-1.295180171728134155e-01
-6.375102698802947998e-02
-2.867027558386325836e-02
8.206241577863693237e-02
5.064510181546211243e-02
-1.680660992860794067e-01
2.716612070798873901e-02
-2.444439977407455444e-01
-1.210768520832061768e-01
1.797260530292987823e-02
-8.855175226926803589e-02
1.854049041867256165e-02
-1.454466283321380615e-01
-8.606978505849838257e-02
-8.629895746707916260e-02
-1.012033671140670776e-01
-2.223343104124069214e-01
-1.336718052625656128e-01
-3.588965907692909241e-02
-3.537819534540176392e-02
-2.435196638107299805e-01
-7.480787485837936401e-02
-2.749044299125671387e-01
8.345858007669448853e-02
-1.260859072208404541e-01
-1.626883745193481445e-01
-1.697341650724411011e-01
-1.330657005310058594e-01
-2.293234020471572876e-01
1.285835634917020798e-02
-3.544928431510925293e-01
-4.117346107959747314e-01
-8.265203982591629028e-02
9.611923992633819580e-02
-1.197516545653343201e-01
-1.572161763906478882e-01
-1.309058517217636108e-01
9.808342158794403076e-02
-7.704664021730422974e-02
-2.400740534067153931e-01
2.595968544483184814e-01
-1.467345058917999268e-01
6.817719340324401855e-02
-9.058223664760589600e-02
-3.423687769100070000e-03
-1.157711222767829895e-01
-6.653276085853576660e-02
-1.768070459365844727e-01
-5.386863648891448975e-02
-1.640771776437759399e-01
-1.296342536807060242e-02
7.810068782418966293e-03
-2.472609281539916992e-02
-2.051089107990264893e-01
-2.601088397204875946e-02
-7.391146570444107056e-02
-1.378179341554641724e-01
4.559647291898727417e-02
1.321044098585844040e-02
-6.637151539325714111e-02
-6.735679507255554199e-02
2.361925691366195679e-02
1.305633923038840294e-03
-4.586397111415863037e-02
-1.234888583421707153e-01
-3.436543047428131104e-02
-6.702824681997299194e-02
-8.923117816448211670e-02
-8.366888016462326050e-02
-6.691785156726837158e-02
-9.029660373926162720e-02
3.232000162824988365e-03
-1.491163969039916992e-01
-4.470185935497283936e-02
-3.049458004534244537e-02
-1.534100025892257690e-01
-2.453820407390594482e-02
-1.181296333670616150e-01
-1.054488774389028549e-02
-8.683542720973491669e-03
-1.322102248668670654e-01
-8.552129566669464111e-02
-2.411304786801338196e-02
-7.599416654556989670e-03
-8.197381248464807868e-05
-4.092650488018989563e-02
-5.964547395706176758e-02
1.074685454368591309e-01
-1.364158987998962402e-01
1.310052722692489624e-02
9.091836214065551758e-02
-1.390007138252258301e-01
-5.788137391209602356e-02
-2.917283400893211365e-02
-4.035521298646926880e-02
-4.173824936151504517e-02
1.428032293915748596e-03
1.017307490110397339e-02
2.538509853184223175e-02
-4.379720240831375122e-02
-3.947284445166587830e-02
-2.010357379913330078e-02
-1.593001186847686768e-02
5.885071121156215668e-03
9.204451739788055420e-02
-1.859887391328811646e-01
-1.491281203925609589e-03
1.911553926765918732e-02
8.584679663181304932e-02
7.590316236019134521e-02
8.078502118587493896e-02
1.148386392742395401e-03
-3.723517805337905884e-02
-6.128882244229316711e-02
-1.117468550801277161e-01
1.120602339506149292e-01
-7.531505078077316284e-02
-7.771480083465576172e-02
1.386585533618927002e-01
-1.836504936218261719e-01
7.938773185014724731e-02
1.805413663387298584e-01
1.101544946432113647e-01
3.277761116623878479e-02
-2.493276149034500122e-01
-6.164623051881790161e-02
-2.385106682777404785e-02
1.876781433820724487e-01
3.217329829931259155e-02
-2.795104086399078369e-01
6.494741141796112061e-02
7.803776115179061890e-02
-5.684664845466613770e-02
1.385219097137451172e-01
2.748308703303337097e-02
-2.212467938661575317e-01
4.588845744729042053e-02
-1.247338354587554932e-01
7.395808398723602295e-02
1.038140505552291870e-01
6.373059749603271484e-02
-8.469302952289581299e-02
-1.260275840759277344e-01
-5.255248546600341797e-01
-5.559134110808372498e-02
3.708893200382590294e-03
1.880794465541839600e-01
2.484210021793842316e-02
-2.720903605222702026e-03
1.168050244450569153e-01
6.477607041597366333e-02
-1.329207420349121094e-01
1.298279911279678345e-01
2.204019948840141296e-02
-7.237111777067184448e-02
-9.453910589218139648e-02
1.125892624258995056e-01
-2.358245104551315308e-02
6.099103018641471863e-02
-5.859342217445373535e-02
-4.617708548903465271e-02
-2.223551571369171143e-01
6.338811013847589493e-03
-1.308744847774505615e-01
9.540404379367828369e-02
-4.929317533969879150e-02
-1.777563057839870453e-02
-1.770995929837226868e-02
2.485876204445958138e-03
-1.853141561150550842e-02
-2.199517339468002319e-01
-3.384500145912170410e-01
-6.139698252081871033e-02
-4.120077192783355713e-02
1.319167762994766235e-01
6.536764651536941528e-02
-1.136723086237907410e-01
-1.217730790376663208e-01
-1.769913136959075928e-01
1.056983023881912231e-01
-1.289670318365097046e-01
1.106575876474380493e-01
-2.840633988380432129e-01
-1.742525249719619751e-01
4.514698311686515808e-02
1.715921610593795776e-01
8.064306527376174927e-02
-1.779261380434036255e-01
-6.946129351854324341e-02
-5.891575291752815247e-02
2.782719023525714874e-02
-4.473854601383209229e-02
-1.289291232824325562e-01
-1.738829016685485840e-01
4.136568680405616760e-02
-1.192799881100654602e-01
-8.509989827871322632e-02
1.005732044577598572e-01
4.463949427008628845e-02
-2.797151729464530945e-02
8.371376246213912964e-02
-2.500163763761520386e-02
-7.155215740203857422e-02
2.498598024249076843e-02
3.140259906649589539e-02
-1.910322345793247223e-02
5.471751792356371880e-04
-3.250273764133453369e-01
-1.198974922299385071e-01
2.751804143190383911e-02
1.098856702446937561e-01
4.690593481063842773e-02
1.790246181190013885e-02
7.617994677275419235e-03
-1.305439393036067486e-03
-1.088539883494377136e-01
8.721376955509185791e-02
-6.259857118129730225e-02
-1.722367554903030396e-01
-6.023471057415008545e-02
2.152166125597432256e-04
-3.594012930989265442e-02
5.388060584664344788e-02
-1.243935152888298035e-01
1.219563335180282593e-01
-2.598573565483093262e-01
-7.750394195318222046e-02
2.017969451844692230e-02
1.556129753589630127e-02
-1.654790937900543213e-01
-1.334310173988342285e-01
-1.877265423536300659e-02
-1.346021741628646851e-01
8.851666934788227081e-04
-1.215489879250526428e-01
-2.459917962551116943e-01
-6.133081391453742981e-02
-1.339081525802612305e-01
1.607337146997451782e-01
3.723528236150741577e-02
5.544814094901084900e-02
-1.485947519540786743e-01
-1.978230178356170654e-01
-7.283920049667358398e-02
-5.356426909565925598e-02
6.922648102045059204e-02
-5.176843702793121338e-02
-1.010718122124671936e-01
-1.638683304190635681e-02
-2.454310888424515724e-03
-3.666942194104194641e-02
3.198953345417976379e-03
-3.468655943870544434e-01
4.515286162495613098e-02
3.563893213868141174e-02
-2.584260702133178711e-02
9.668999910354614258e-02
7.696072757244110107e-02
-3.571246564388275146e-02
9.847150743007659912e-02
-1.128326132893562317e-01
2.575269527733325958e-02
1.508826613426208496e-01
-6.875969469547271729e-02
-4.390519112348556519e-02
-1.084431260824203491e-02
-3.320917487144470215e-02
6.216385215520858765e-02
-9.010750800371170044e-03
-4.764045029878616333e-02
-2.897987961769104004e-01
-5.529526993632316589e-02
-2.049448192119598389e-01
9.344052523374557495e-02
-1.440826058387756348e-01
2.810515463352203369e-03
-5.139574781060218811e-02
-1.324011981487274170e-01
-2.004678547382354736e-02
-1.453468389809131622e-02
-1.043181642889976501e-01
1.534167677164077759e-01
5.180506408214569092e-02
-1.983383744955062866e-01
-1.001535803079605103e-01
-1.086372360587120056e-01
-3.951854631304740906e-02
-3.333524465560913086e-01
9.504099190235137939e-02
-6.583821773529052734e-02
-9.821457415819168091e-02
-1.469226330518722534e-01
-3.286879137158393860e-02
-3.071348555386066437e-02
-1.665843129158020020e-01
-3.052077814936637878e-02
-1.560095548629760742e-01
-2.606785297393798828e-01
3.539622295647859573e-03
-3.679245337843894958e-02
-1.375869847834110260e-02
5.166645348072052002e-02
-6.705139577388763428e-02
4.487382620573043823e-02
-2.398381978273391724e-01
-1.935103535652160645e-02
-1.893822550773620605e-01
1.315314173698425293e-01
-1.847884654998779297e-01
1.406731903553009033e-01
-3.578057140111923218e-02
6.684313714504241943e-02
5.851521342992782593e-02
1.143121793866157532e-01
-4.599390029907226562e-01
7.609856128692626953e-02
1.864147000014781952e-02
-1.071460917592048645e-01
8.058705180883407593e-02
8.262491226196289062e-02
-5.259401630610227585e-03
-3.609398752450942993e-02
-2.599213458597660065e-02
-6.310038268566131592e-02
1.035542041063308716e-02
-1.876868605613708496e-01
-1.067997235804796219e-02
-1.041833832859992981e-01
1.035994738340377808e-01
1.523284912109375000e-01
-7.317635230720043182e-03
7.143299095332622528e-03
-1.156662628054618835e-01
1.054040044546127319e-01
2.679424919188022614e-02
-2.877148687839508057e-01
-1.489379722625017166e-02
-2.082605846226215363e-02
-1.467782557010650635e-01
-1.445850282907485962e-01
2.905154414474964142e-02
-1.404676735401153564e-01
5.673702061176300049e-02
-3.994082286953926086e-02
-6.932713836431503296e-02
3.489731997251510620e-02
8.369247615337371826e-02
-4.054497182369232178e-02
4.747600480914115906e-02
-1.359025090932846069e-01
-2.921145036816596985e-02
-3.202580213546752930e-01
3.701306134462356567e-02
-1.179128438234329224e-01
-2.367918193340301514e-01
-6.121193990111351013e-02
-4.178911745548248291e-01
-4.840924218297004700e-02
-2.846462428569793701e-01
-9.728498011827468872e-02
1.596040129661560059e-01
-2.252377271652221680e-01
-4.193551838397979736e-02
-9.996204823255538940e-02
-2.608704566955566406e-01
-1.038439348340034485e-01
-9.700212627649307251e-02
1.402101218700408936e-01
-8.276619762182235718e-02
-8.150469511747360229e-02
-2.467817217111587524e-01
-1.872382499277591705e-02
-9.323373436927795410e-02
-9.208154678344726562e-02
-3.509687483310699463e-01
-1.378539204597473145e-01
-6.430014222860336304e-02
8.125276863574981689e-02
8.788580447435379028e-02
-1.227608229964971542e-02
-4.943989589810371399e-02
-7.003426551818847656e-02
-2.044274359941482544e-01
1.743082404136657715e-01
-8.658579550683498383e-03
-1.455168724060058594e-01
1.600758880376815796e-01
3.933342546224594116e-02
-2.153450250625610352e-02
-2.075415663421154022e-02
1.446609348058700562e-01
-1.748683005571365356e-01
1.101653743535280228e-02
5.297047272324562073e-02
-4.095139447599649429e-03
1.370836198329925537e-01
1.543202158063650131e-02
-1.236087158322334290e-01
-1.456851419061422348e-02
-1.760187894105911255e-01
-1.436116546392440796e-01
-1.961145102977752686e-01
-8.409479260444641113e-02
1.153455525636672974e-01
3.052460402250289917e-02
-2.938373200595378876e-02
-5.248644948005676270e-02
1.888558082282543182e-02
-8.866687864065170288e-02
-1.035185530781745911e-01
-8.997099101543426514e-02
-4.601493105292320251e-02
4.510175809264183044e-02
-7.363335043191909790e-02
-8.984643220901489258e-02
-9.284418076276779175e-03
-4.891716688871383667e-02
1.184554994106292725e-01
-1.940251588821411133e-01
-7.549275457859039307e-02
4.440749436616897583e-02
-2.087849192321300507e-02
-1.469065248966217041e-01
1.457896083593368530e-01
2.384705394506454468e-01
7.711628824472427368e-02
-8.361163735389709473e-02
-8.172716945409774780e-02
-1.291653066873550415e-01
-2.075311094522476196e-01
1.489811688661575317e-01
-5.972127430140972137e-03
-9.146045148372650146e-02
-1.035694405436515808e-01
-1.311003565788269043e-01
9.413848072290420532e-02
6.212603673338890076e-02
4.774385690689086914e-02
2.990325912833213806e-02
2.201406285166740417e-02
1.406766027212142944e-01
2.284737117588520050e-02
-2.440669983625411987e-01
-9.850367903709411621e-02
-7.344898581504821777e-02
3.027459047734737396e-02
-8.668416738510131836e-02
-1.385118067264556885e-02
-5.768892541527748108e-02
-2.611210644245147705e-01
1.582855544984340668e-02
-1.918661594390869141e-01
-9.355378150939941406e-02
3.860669583082199097e-02
8.710923790931701660e-02
5.253271083347499371e-04
8.760447800159454346e-02
-4.265091940760612488e-02
-1.468437463045120239e-01
1.060728952288627625e-01
4.202734306454658508e-02
6.386417150497436523e-02
-2.595516741275787354e-01
-3.063071891665458679e-02
-1.507818996906280518e-01
4.426824674010276794e-02
-5.620884150266647339e-02
-1.569247692823410034e-01
-2.065835148096084595e-02
2.829673886299133301e-02
5.011494085192680359e-02
-1.312101930379867554e-01
-2.244653739035129547e-02
-1.636499352753162384e-02
-7.062926888465881348e-02
-1.669102907180786133e-01
-1.070726737380027771e-01
4.258060082793235779e-02
-3.456676304340362549e-01
-2.185802534222602844e-02
8.834239840507507324e-02
5.318516120314598083e-02
-4.454520717263221741e-02
-4.972500260919332504e-03
-2.081247121095657349e-01
9.194394946098327637e-02
-2.472918778657913208e-01
-1.275104284286499023e-01
1.802233010530471802e-01
1.580417901277542114e-01
-2.117922455072402954e-01
1.113206706941127777e-02
-4.755756258964538574e-02
-1.282865703105926514e-01
-1.244178134948015213e-02
2.327003777027130127e-01
1.541097313165664673e-01
-2.308452427387237549e-01
-2.525936961174011230e-01
6.111275777220726013e-02
-1.079271286725997925e-01
1.364083141088485718e-01
-1.445234119892120361e-01
-4.616053029894828796e-02
2.246584184467792511e-02
-2.724177204072475433e-02
-5.858296994119882584e-03
3.637440502643585205e-02
2.895384561270475388e-03
-7.395412027835845947e-02
-8.806673437356948853e-02
1.408042293041944504e-02
-4.652667324990034103e-03
2.592104859650135040e-02
2.905021887272596359e-03
-1.125006936490535736e-02
-3.199112135916948318e-03
-2.176203578710556030e-02
-1.134636104106903076e-01
4.203825816512107849e-02
-2.987983077764511108e-02
-5.146279558539390564e-02
3.044248744845390320e-02
-1.196473389863967896e-01
-4.558573663234710693e-02
-2.709446288645267487e-02
8.105238527059555054e-02
-8.534000255167484283e-03
1.475731376558542252e-02
-4.303909372538328171e-03
7.990299165248870850e-02
-9.210590273141860962e-03
-2.803852222859859467e-02
-4.951660335063934326e-02
-2.835331670939922333e-02
-2.420968003571033478e-02
-2.045319415628910065e-02
-1.014336273074150085e-01
-2.672720886766910553e-02
4.325865209102630615e-02
1.628389582037925720e-02
-7.435475476086139679e-03
2.805649675428867340e-02
3.238519653677940369e-02
-5.873011425137519836e-02
4.810371249914169312e-02
6.634925305843353271e-02
-4.258877784013748169e-02
1.933494582772254944e-02
-8.056047558784484863e-02
6.793227791786193848e-02
-9.378924965858459473e-02
2.585146762430667877e-02
-1.384129002690315247e-02
-4.050429537892341614e-02
-4.231578484177589417e-02
2.930654957890510559e-02
-5.335987359285354614e-02
-1.279596611857414246e-02
-3.822458907961845398e-02
-1.004212498664855957e-01
-1.424081176519393921e-01
5.917081609368324280e-02
-6.880682706832885742e-02
-7.863885723054409027e-03
-9.863545745611190796e-02
2.183008752763271332e-02
-1.056682392954826355e-01
1.243447959423065186e-01
-3.611226752400398254e-02
1.888003051280975342e-01
5.443124845623970032e-02
-2.663236558437347412e-01
1.301133483648300171e-01
-5.603008344769477844e-02
-1.359208524227142334e-01
1.744090765714645386e-01
-4.278387874364852905e-02
-7.783617079257965088e-02
-2.703278064727783203e-01
1.097979918122291565e-01
5.038934294134378433e-03
-1.122649759054183960e-01
-3.296797350049018860e-02
8.602046966552734375e-02
1.640139371156692505e-01
1.441892236471176147e-01
-2.351650223135948181e-02
-1.840262711048126221e-01
2.615258693695068359e-01
-1.757549196481704712e-01
-1.387058198451995850e-01
-1.349106524139642715e-02
-3.244526311755180359e-02
-2.747289836406707764e-01
1.182023212313652039e-01
1.773937493562698364e-01
-2.133898437023162842e-01
1.234022453427314758e-01
2.993806824088096619e-02
2.040027230978012085e-01
3.816109001636505127e-01
-2.918873354792594910e-02
-2.827512621879577637e-01
-2.230003178119659424e-01
1.038232967257499695e-01
-3.123249709606170654e-01
-1.483957320451736450e-01
-6.396244466304779053e-02
1.687098480761051178e-02
-1.571488976478576660e-01
-9.086264669895172119e-02
6.561984121799468994e-02
1.164398938417434692e-01
-2.718608677387237549e-01
-1.747885197401046753e-01
7.269477844238281250e-02
-1.342150568962097168e-01
-8.474251627922058105e-02
-1.844602227210998535e-01
-3.845503553748130798e-02
1.186798959970474243e-01
6.646655499935150146e-02
-2.169283926486968994e-01
-3.235383331775665283e-01
1.293695271015167236e-01
-2.622302994132041931e-02
-9.704902023077011108e-02
-2.067026197910308838e-01
4.910700395703315735e-02
-8.254373073577880859e-02
-5.304866284132003784e-02
3.871517255902290344e-02
6.320887058973312378e-02
-2.821556665003299713e-02
1.150554344058036804e-01
-1.145690977573394775e-01
1.236537173390388489e-01
1.508596092462539673e-01
1.863532066345214844e-01
1.814667694270610809e-02
5.631644278764724731e-02
-7.989251613616943359e-02
9.983526915311813354e-02
-3.572366014122962952e-02
4.836998414248228073e-03
-5.713802203536033630e-02
1.824322789907455444e-01
6.499312072992324829e-02
1.948524713516235352e-01
1.061277687549591064e-01
2.446384727954864502e-02
-1.201213523745536804e-01
-7.817780971527099609e-02
-5.144726857542991638e-02
-2.508273124694824219e-01
-5.840365961194038391e-02
-3.345546498894691467e-02
-1.016608253121376038e-01
-2.363213710486888885e-02
2.085671275854110718e-01
-3.632328212261199951e-01
1.042190566658973694e-01
-5.189597606658935547e-02
2.983296290040016174e-02
-2.570483684539794922e-01
5.681962519884109497e-02
-1.525724530220031738e-01
-5.571192130446434021e-02
-9.211003035306930542e-02
-1.817064136266708374e-01
1.420749351382255554e-02
-6.762635428458452225e-03
4.079621657729148865e-02
-7.311078161001205444e-02
-1.633124649524688721e-01
1.231441870331764221e-01
1.518637239933013916e-01
-1.025806665420532227e-01
2.683112323284149170e-01
7.743132114410400391e-02
5.846776068210601807e-02
1.625865325331687927e-02
-4.425163194537162781e-02
1.500224471092224121e-01
1.465722266584634781e-02
1.350340843200683594e-01
1.104011852294206619e-02
-1.165672168135643005e-01
4.687755834311246872e-03
-1.141504272818565369e-01
5.245116353034973145e-02
-9.736651927232742310e-02
-2.189353853464126587e-01
6.873032450675964355e-02
-6.782655417919158936e-02
-1.242005079984664917e-01
8.509821258485317230e-03
6.616497784852981567e-02
-4.336206614971160889e-02
-8.494310826063156128e-02
1.245595291256904602e-01
5.229212110862135887e-04
-2.914807200431823730e-02
4.404095932841300964e-02
-1.263085007667541504e-02
-2.267208648845553398e-03
-2.262277156114578247e-01
5.022201314568519592e-02
1.029493436217308044e-01
-9.107267111539840698e-02
1.328473985195159912e-01
-1.734111085534095764e-02
7.009207457304000854e-02
1.901985555887222290e-01
-1.909686177968978882e-01
-4.702588543295860291e-02
-1.143260821700096130e-01
-4.029088094830513000e-02
8.334202319383621216e-02
-2.290489971637725830e-01
-1.187685802578926086e-01
-8.559814095497131348e-02
-2.477797912433743477e-03
1.496147830039262772e-03
-8.081977255642414093e-03
1.057186499238014221e-01
-1.092416271567344666e-01
-1.240719854831695557e-01
-4.199107289314270020e-01
6.502421107143163681e-03
2.992394752800464630e-02
4.919358715415000916e-02
-4.377951472997665405e-02
-1.386964917182922363e-01
1.549992989748716354e-02
-1.260753162205219269e-02
-2.321868948638439178e-02
5.134205892682075500e-02
1.426073759794235229e-01
-1.291611343622207642e-01
-2.448024228215217590e-02
1.423964798450469971e-01
-2.895374968647956848e-02
-2.005943208932876587e-01
8.676182478666305542e-02
-1.861927211284637451e-01
-2.435957491397857666e-01
-2.393341250717639923e-02
-2.263046428561210632e-02
-2.433574497699737549e-01
1.168252006173133850e-01
-3.076470643281936646e-02
-5.003860965371131897e-02
-1.817912310361862183e-01
3.043058514595031738e-02
1.730896881781518459e-03
1.715833134949207306e-02
-8.188457787036895752e-02
7.365071680396795273e-03
9.599462896585464478e-02
4.075987264513969421e-02
-4.103974699974060059e-01
2.701972052454948425e-02
3.296699747443199158e-02
9.909994155168533325e-02
2.927939966320991516e-02
-7.561322301626205444e-02
-8.097275346517562866e-02
-1.445048451423645020e-01
8.454810827970504761e-02
7.303342968225479126e-02
-1.625378131866455078e-01
1.462141275405883789e-01
-1.896728277206420898e-01
1.083920225501060486e-01
2.456339821219444275e-02
-2.298546582460403442e-02
-2.009467035531997681e-01
7.075923681259155273e-02
7.293259352445602417e-02
4.700930044054985046e-02
-1.351111680269241333e-01
-1.297379881143569946e-01
-1.142397820949554443e-01
1.069551147520542145e-02
-1.633328497409820557e-01
-7.654272019863128662e-02
1.257835030555725098e-01
1.293573528528213501e-01
3.322382271289825439e-02
-2.410192787647247314e-01
-1.011540740728378296e-01
-2.236064970493316650e-01
-4.220672324299812317e-02
-3.877890110015869141e-02
-4.991366527974605560e-03
-1.776764169335365295e-03
-8.866667002439498901e-02
4.776878282427787781e-02
-5.124694108963012695e-02
-8.679365366697311401e-02
-8.044163882732391357e-02
-2.367684803903102875e-02
-6.879846099764108658e-03
-1.908104270696640015e-01
-1.009341403841972351e-01
-1.033527776598930359e-01
-2.972058653831481934e-01
4.720188677310943604e-02
-8.309547603130340576e-02
-1.732589900493621826e-01
-2.422990351915359497e-01
-9.024701267480850220e-02
2.952821925282478333e-02
2.177897840738296509e-01
-5.439603701233863831e-02
-2.806223183870315552e-02
-1.444317549467086792e-01
-5.850709602236747742e-02
2.140908315777778625e-02
8.336264640092849731e-02
-4.044032692909240723e-01
-7.486543059349060059e-02
1.045392081141471863e-01
4.176952317357063293e-02
-1.387326717376708984e-01
-5.318021029233932495e-02
6.128312647342681885e-02
-2.238196134567260742e-02
-7.703288644552230835e-02
-4.004729539155960083e-02
1.388259530067443848e-01
-1.741250157356262207e-01
2.291668206453323364e-01
8.097651600837707520e-02
-1.175173893570899963e-01
1.738401204347610474e-01
-1.710662692785263062e-01
2.938990667462348938e-02
-3.255562856793403625e-03
1.014152020215988159e-01
2.435456775128841400e-02
-8.408966660499572754e-02
-8.442246355116367340e-03
-2.993057109415531158e-02
-1.136315315961837769e-01
-1.656380146741867065e-01
1.676065921783447266e-01
-4.131867364048957825e-02
-1.566176563501358032e-01
-5.741481855511665344e-02
3.640684857964515686e-02
6.917641311883926392e-02
1.443637311458587646e-01
-1.240342482924461365e-01
-5.955503880977630615e-02
-7.856894284486770630e-02
-6.006287038326263428e-02
-1.024282723665237427e-01
-1.534126251935958862e-01
7.110165897756814957e-03
1.277899444103240967e-01
1.006589233875274658e-01
1.419799327850341797e-01
-1.971876472234725952e-01
-1.455967277288436890e-01
4.207563027739524841e-02
7.381825149059295654e-02
-7.443264871835708618e-02
-1.345398277044296265e-01
-2.195172943174839020e-02
-1.029421165585517883e-01
6.990557163953781128e-02
-2.054488807916641235e-01
6.066615134477615356e-02
8.069394528865814209e-02
-2.299507707357406616e-02
6.171444430947303772e-02
7.001157850027084351e-02
1.451011095196008682e-02
1.071536689996719360e-01
-1.891533881425857544e-01
-7.320076972246170044e-02
3.396409098058938980e-03
1.622352749109268188e-01
-1.043823137879371643e-01
4.342062026262283325e-02
-1.326860636472702026e-01
-7.417694665491580963e-03
1.278864312916994095e-02
3.126139054074883461e-03
4.600793123245239258e-02
-8.820943534374237061e-02
5.591979622840881348e-02
-2.425742596387863159e-01
1.222911849617958069e-01
-3.508477658033370972e-02
-1.864628195762634277e-01
-2.975249290466308594e-02
-4.373054951429367065e-02
8.463428169488906860e-02
6.955502927303314209e-02
2.673847042024135590e-02
1.346233207732439041e-02
-1.623465865850448608e-01
5.658635497093200684e-02
-1.168345659971237183e-01
-1.012446135282516479e-01
-6.832332909107208252e-02
-5.502913147211074829e-02
7.796843349933624268e-02
2.395143965259194374e-03
4.724895209074020386e-02
-3.800485655665397644e-02
-3.561080619692802429e-02
-6.588035076856613159e-02
-7.316297292709350586e-02
4.727869108319282532e-02
-6.191784888505935669e-02
-3.707238286733627319e-02
-1.692541390657424927e-01
1.010702028870582581e-01
-1.488660722970962524e-01
9.496810287237167358e-02
-2.459975704550743103e-02
6.558062881231307983e-02
-8.348640054464340210e-02
2.701631514355540276e-03
1.327749639749526978e-01
-1.019234582781791687e-02
8.848250657320022583e-02
1.575802336446940899e-03
-8.151789754629135132e-02
8.617719262838363647e-02
4.636701568961143494e-02
-5.518983677029609680e-02
5.419051647186279297e-02
-2.706332132220268250e-02
-2.111199311912059784e-02
3.341485187411308289e-02
-7.797575742006301880e-02
-1.574749350547790527e-01
-1.250000745058059692e-01
-9.876758605241775513e-02
-3.550954461097717285e-01
-2.358040064573287964e-01
-6.593838334083557129e-02
-6.205748766660690308e-02
-2.325848639011383057e-01
1.384891383349895477e-02
-1.082287952303886414e-01
-1.396143436431884766e-01
6.395537406206130981e-02
-5.525636672973632812e-02
1.682086847722530365e-02
-1.072599366307258606e-01
-5.841940268874168396e-02
-3.036272712051868439e-02
9.106288105249404907e-02
-1.122961863875389099e-01
-2.280625998973846436e-01
1.242894530296325684e-01
-1.656804233789443970e-01
6.237644329667091370e-02
-9.779217839241027832e-02
5.773338302969932556e-02
-1.040263995528221130e-01
-7.170429825782775879e-02
-5.669541284441947937e-02
9.799647377803921700e-04
-1.050532534718513489e-01
5.433250684291124344e-03
-6.322570145130157471e-02
-6.010172888636589050e-02
-3.413544595241546631e-02
1.357363164424896240e-01
-5.185639485716819763e-02
-4.200550541281700134e-02
3.515513846650719643e-03
-6.955126672983169556e-02
-1.342017501592636108e-01
-7.537314295768737793e-02
-2.091100662946701050e-01
-1.428250372409820557e-01
-1.403430756181478500e-02
-4.270501062273979187e-02
-1.648760982789099216e-03
-1.205200701951980591e-01
1.123635843396186829e-01
-1.296961456537246704e-01
1.765151768922805786e-01
2.184907048940658569e-01
-8.817956782877445221e-03
1.991346478462219238e-01
-4.844427853822708130e-02
-9.695462137460708618e-02
6.695582717657089233e-02
8.500469475984573364e-02
1.336830109357833862e-01
-3.237772732973098755e-02
5.883116275072097778e-02
-5.984558537602424622e-02
-9.926585108041763306e-02
8.441513776779174805e-02
-8.182046562433242798e-02
-9.667415916919708252e-02
3.277411460876464844e-01
-2.102400660514831543e-01
-2.698349356651306152e-01
-3.345479071140289307e-01
1.774034798145294189e-01
-3.005911409854888916e-01
-7.351138442754745483e-02
-8.110578358173370361e-02
-1.312970221042633057e-01
3.460708633065223694e-02
-6.409031152725219727e-02
-1.243028417229652405e-01
1.311319321393966675e-01
1.100487355142831802e-02
-1.055144071578979492e-01
8.822306990623474121e-02
-1.456398665904998779e-01
2.643911167979240417e-02
-2.963831722736358643e-01
-1.597824841737747192e-01
2.624812535941600800e-02
5.937019735574722290e-02
1.813004016876220703e-01
1.476564407348632812e-01
1.829748414456844330e-02
7.416199892759323120e-02
6.572473794221878052e-02
-3.257546573877334595e-03
-1.529686897993087769e-01
-8.719756454229354858e-02
-1.362248659133911133e-01
-1.129640918225049973e-02
-3.348577767610549927e-02
1.412591785192489624e-01
5.761417001485824585e-02
-2.931992523372173309e-02
1.170326396822929382e-02
-2.729474008083343506e-01
1.312869638204574585e-01
1.218947768211364746e-01
-1.268446296453475952e-01
1.022181734442710876e-01
1.072029694914817810e-01
7.397723197937011719e-02
-9.038846194744110107e-02
-4.102843627333641052e-02
8.971581608057022095e-02
1.634351350367069244e-02
-1.970716118812561035e-01
1.426800340414047241e-01
6.091790273785591125e-03
-5.063069611787796021e-02
-1.383467018604278564e-01
-9.999865293502807617e-02
-3.061843514442443848e-01
-7.483155280351638794e-02
1.530948877334594727e-01
3.019983135163784027e-02
3.111579269170761108e-02
9.902064502239227295e-02
1.256011542864143848e-03
9.423173964023590088e-02
1.000442951917648315e-01
7.225090637803077698e-03
-5.087568610906600952e-02
-8.082722872495651245e-02
7.261220365762710571e-02
-5.311825871467590332e-02
-1.886340081691741943e-01
1.499660760164260864e-01
-7.408209145069122314e-02
-5.739236623048782349e-02
1.194543913006782532e-01
1.023278199136257172e-02
1.444777250289916992e-01
-9.282848984003067017e-02
1.021967008709907532e-01
-4.659438878297805786e-02
-2.000030577182769775e-01
3.210878930985927582e-03
1.354995220899581909e-01
1.038269326090812683e-01
-1.919691711664199829e-01
2.501848042011260986e-01
1.431765221059322357e-02
5.552797764539718628e-02
-1.963075846433639526e-01
2.552242875099182129e-01
-3.529222309589385986e-01
8.684168569743633270e-03
8.606657385826110840e-02
2.627235651016235352e-02
-6.904861330986022949e-02
-3.066919147968292236e-01
7.667662948369979858e-02
-9.005679190158843994e-02
-3.600275814533233643e-01
5.527498573064804077e-02
-1.452319920063018799e-01
-4.943345487117767334e-02
-1.190058439970016479e-01
-1.498827189207077026e-01
-3.058080077171325684e-01
-2.344982326030731201e-01
-1.759220212697982788e-01
1.058989837765693665e-01
1.637170761823654175e-01
-6.778319180011749268e-02
-2.941157519817352295e-01
-2.707221508026123047e-01
-7.698413729667663574e-02
-2.081899493932723999e-01
2.718088328838348389e-01
3.099939227104187012e-01
-1.437807083129882812e-01
3.281077370047569275e-02
-5.799444392323493958e-02
-1.606863886117935181e-01
7.812732458114624023e-02
-2.628374695777893066e-01
1.492550373077392578e-01
4.297963157296180725e-02
1.577726900577545166e-01
8.887728676199913025e-03
-2.353326678276062012e-01
-7.415189594030380249e-02
1.688247025012969971e-01
1.687830835580825806e-01
2.316048890352249146e-01
-7.249648869037628174e-02
-1.268435716629028320e-01
-4.972825348377227783e-01
1.156135722994804382e-01
-4.066351950168609619e-01
-1.506731957197189331e-01
-2.966572642326354980e-01
3.481024876236915588e-02
-1.104207523167133331e-02
3.844774886965751648e-02
-3.363649919629096985e-02
1.628668606281280518e-01
9.409830719232559204e-02
-1.504667699337005615e-01
-1.578184813261032104e-01
2.116291318088769913e-03
-5.022625997662544250e-02
-6.369598954916000366e-02
-2.043400891125202179e-02
-5.424972623586654663e-02
-9.957192465662956238e-03
3.719407320022583008e-02
-9.282794594764709473e-02
1.833750307559967041e-02
-2.203343957662582397e-01
-9.625393897294998169e-02
7.054428011178970337e-02
-1.671254336833953857e-01
-1.346056014299392700e-01
6.862910464406013489e-03
1.729322969913482666e-01
-3.633025288581848145e-02
-1.476950645446777344e-01
-3.723730146884918213e-02
3.157329978421330452e-03
8.090384304523468018e-02
-9.369698166847229004e-02
1.420152485370635986e-01
-5.341703444719314575e-02
3.242559358477592468e-02
-1.265553385019302368e-01
-9.299250692129135132e-02
2.488744817674160004e-02
1.496845204383134842e-02
-2.089443430304527283e-02
-7.521678507328033447e-02
-6.211975216865539551e-02
-3.641900420188903809e-01
-1.456078290939331055e-01
3.134750202298164368e-02
9.155032783746719360e-02
-3.777781128883361816e-01
-3.205570578575134277e-02
-1.617924571037292480e-01
-4.025861322879791260e-01
-2.084996402263641357e-01
1.695173047482967377e-02
1.370444986969232559e-02
5.411359947174787521e-03
1.596388593316078186e-02
5.404420197010040283e-02
-5.081168934702873230e-02
-4.302253201603889465e-02
-1.431745737791061401e-01
-1.714684367179870605e-01
-1.204130724072456360e-01
-3.173804283142089844e-02
-4.811851680278778076e-02
6.337317824363708496e-02
-4.107180610299110413e-02
-2.338434010744094849e-02
-3.058027103543281555e-02
1.320996880531311035e-01
6.626803427934646606e-02
-9.248416870832443237e-02
9.312997013330459595e-02
9.385965764522552490e-02
-6.845981627702713013e-02
7.335376739501953125e-02
-1.421128660440444946e-01
6.641182699240744114e-04
-1.225649416446685791e-01
5.967466160655021667e-02
1.259635090827941895e-01
-2.894084714353084564e-02
2.119387239217758179e-01
5.670418962836265564e-02
-6.990369409322738647e-02
8.267867378890514374e-03
2.397499047219753265e-02
-2.330318465828895569e-02
-8.068437129259109497e-02
-5.942055955529212952e-03
2.012421041727066040e-01
1.008502021431922913e-01
1.022695377469062805e-01
-1.011625770479440689e-02
-1.540831848978996277e-02
-9.400438517332077026e-02
6.090826913714408875e-02
-1.091537997126579285e-01
2.019629441201686859e-02
1.061396002769470215e-01
-2.933290302753448486e-01
-2.651866152882575989e-02
-1.151128672063350677e-02
-1.850726157426834106e-01
-1.262428909540176392e-01
-3.677605092525482178e-02
4.185074940323829651e-02
3.201724216341972351e-02
-3.584125638008117676e-02
8.180509507656097412e-02
-2.916281297802925110e-02
-2.004217505455017090e-01
6.299450993537902832e-02
7.163838297128677368e-02
-5.943567305803298950e-02
-1.824743300676345825e-01
-8.928327262401580811e-02
-3.361814916133880615e-01
-1.944872923195362091e-02
-3.770541399717330933e-02
1.443823575973510742e-01
1.780905574560165405e-01
4.965702071785926819e-03
4.848143085837364197e-03
8.520892262458801270e-02
-9.368059784173965454e-02
2.404634356498718262e-01
-7.505316287279129028e-02
1.426970120519399643e-02
8.884387463331222534e-02
-2.372022531926631927e-02
-1.856516897678375244e-01
5.853259935975074768e-02
8.812539279460906982e-02
-2.568725124001502991e-02
-1.538482606410980225e-01
2.328380197286605835e-02
-1.351414471864700317e-01
1.700251251459121704e-01
-3.749991301447153091e-03
-1.516299396753311157e-01
1.320019513368606567e-01
-2.807902991771697998e-01
-8.637795597314834595e-02
-3.056052923202514648e-01
8.900336176156997681e-02
5.484769493341445923e-02
-3.128145337104797363e-01
4.526999779045581818e-03
-1.068893447518348694e-01
-6.407348811626434326e-02
-1.735591590404510498e-01
-5.638660117983818054e-02
-1.883353292942047119e-02
3.986644372344017029e-02
-1.589314490556716919e-01
-1.846979856491088867e-01
2.138189040124416351e-02
-1.733177751302719116e-01
-2.673603892326354980e-01
6.651926785707473755e-02
5.177558586001396179e-02
6.913114339113235474e-02
-1.401074975728988647e-01
4.067863337695598602e-03
1.351040154695510864e-01
-4.214201569557189941e-01
1.830194145441055298e-02
-9.872195869684219360e-02
1.151962429285049438e-01
1.625788584351539612e-02
-3.752821683883666992e-01
-8.577852696180343628e-02
-1.450448632240295410e-01
1.884504258632659912e-01
-1.282197535037994385e-01
5.253688246011734009e-02
-5.376483127474784851e-02
-6.007947772741317749e-02
3.405565395951271057e-02
-2.025478780269622803e-01
1.391920596361160278e-01
1.152135357260704041e-01
1.160154193639755249e-01
7.324202917516231537e-03
1.086690463125705719e-02
-2.998923137784004211e-02
7.572437077760696411e-02
1.369146704673767090e-01
1.676073111593723297e-02
9.131225198507308960e-02
-1.140112057328224182e-01
-3.798307776451110840e-01
5.492246709764003754e-03
1.217301189899444580e-01
-2.575411796569824219e-01
2.162966318428516388e-02
2.624388784170150757e-02
-9.114003926515579224e-02
6.406772136688232422e-02
5.384064465761184692e-02
-3.560872077941894531e-01
3.241850435733795166e-02
-1.053120270371437073e-01
-2.158523201942443848e-01
-3.115676157176494598e-02
1.165194660425186157e-01
-1.738022118806838989e-01
-1.204635500907897949e-01
-7.582493126392364502e-02
-7.555101066827774048e-02
1.536388695240020752e-01
-5.303779616951942444e-02
-8.483389019966125488e-02
6.057178229093551636e-02
5.803095921874046326e-02
-1.725026965141296387e-01
-1.074964255094528198e-01
9.061586856842041016e-02
-2.417758107185363770e-01
4.536741413176059723e-03
-1.039992868900299072e-01
-1.002434715628623962e-01
-2.718408405780792236e-01
-6.455310434103012085e-02
-4.138366132974624634e-02
-1.471473723649978638e-01
9.004148840904235840e-02
2.283381670713424683e-02
-1.266351938247680664e-01
2.063183337450027466e-01
4.239410161972045898e-02
-2.128677666187286377e-01
-3.535026013851165771e-01
-8.811814337968826294e-02
-1.741271466016769409e-01
-1.162388548254966736e-01
-6.621604412794113159e-02
-7.148333638906478882e-02
8.062147349119186401e-02
-1.057099029421806335e-01
1.742028072476387024e-02
5.817086994647979736e-02
-1.928624324500560760e-02
2.047869861125946045e-01
-4.223925620317459106e-02
-2.583062052726745605e-01
1.755870506167411804e-02
7.900119572877883911e-02
6.365750730037689209e-02
1.733036339282989502e-01
1.661445647478103638e-01
-1.424966156482696533e-01
-1.956422328948974609e-01
8.755679428577423096e-02
3.996611386537551880e-02
8.081129938364028931e-02
-9.908199310302734375e-02
-9.754281491041183472e-02
5.092709884047508240e-02
-2.617594897747039795e-01
-1.588511615991592407e-01
-1.785995624959468842e-02
7.479938119649887085e-02
-2.843425422906875610e-02
-1.540856212377548218e-01
-5.151152983307838440e-02
6.398144643753767014e-03
1.522754132747650146e-02
-2.983596362173557281e-02
2.088688760995864868e-01
-1.899901479482650757e-01
-2.673768103122711182e-01
-1.713700145483016968e-01
-3.874104917049407959e-01
-6.775543838739395142e-02
5.179283395409584045e-02
-1.512128561735153198e-01
7.086034864187240601e-02
1.729249060153961182e-01
-1.820200383663177490e-01
-5.104569718241691589e-02
-4.274498298764228821e-02
-2.352154403924942017e-01
-1.704353652894496918e-02
-2.729540467262268066e-01
-8.585081994533538818e-02
-1.680850237607955933e-01
-5.694411322474479675e-02
9.665960073471069336e-02
-2.121718823909759521e-01
1.072156280279159546e-01
4.269267991185188293e-02
-2.172918021678924561e-01
5.402530357241630554e-02
-2.788459323346614838e-02
-8.191864937543869019e-02
-3.786713778972625732e-01
1.076852753758430481e-01
-1.700760424137115479e-01
9.378972649574279785e-02
4.175845161080360413e-02
-2.066176980733871460e-01
-1.858394294977188110e-01
-6.565758585929870605e-02
7.791259884834289551e-02
7.310634106397628784e-02
1.444870233535766602e-01
1.700750179588794708e-02
-1.079123374074697495e-02
-3.141767382621765137e-01
-1.087704598903656006e-01
-8.781297504901885986e-02
1.174173355102539062e-01
7.137249410152435303e-02
7.494729012250900269e-02
5.132226645946502686e-02
-2.038426548242568970e-01
-7.837899774312973022e-02
2.995338477194309235e-02
1.494018286466598511e-01
-2.491563409566879272e-01
-3.379763364791870117e-01
-2.792617678642272949e-02
-2.693558856844902039e-02
2.162016741931438446e-02
-1.632701791822910309e-02
-6.775391846895217896e-02
-7.219988852739334106e-02
4.820038005709648132e-02
1.817762292921543121e-02
-8.508499711751937866e-02
-3.036430664360523224e-02
-8.911836892366409302e-02
1.900573074817657471e-02
1.481917649507522583e-01
6.324802339076995850e-02
1.195109412074089050e-01
2.845436148345470428e-02
1.110827252268791199e-01
-3.356331959366798401e-02
1.265406012535095215e-01
-7.307341694831848145e-02
1.324453018605709076e-02
-5.040504038333892822e-02
2.909174188971519470e-02
-3.967130184173583984e-02
-6.424925476312637329e-02
3.942108526825904846e-02
-5.470220372080802917e-02
1.282037645578384399e-01
-6.283050775527954102e-02
-1.135206818580627441e-01
-3.823448205366730690e-03
2.291240729391574860e-02
-5.605564638972282410e-02
-2.859838493168354034e-02
-2.013553492724895477e-02
-1.371386945247650146e-01
5.392776429653167725e-02
-8.929318934679031372e-02
-6.559814512729644775e-02
-1.227536797523498535e-02
9.576012939214706421e-02
1.954348292201757431e-03
-2.157486379146575928e-01
-5.690822377800941467e-02
-8.989910036325454712e-02
-2.662832476198673248e-02
2.431057579815387726e-02
-9.218645840883255005e-02
-5.762138217687606812e-02
-1.019467264413833618e-01
4.429938271641731262e-02
5.553557537496089935e-03
-1.014400720596313477e-01
-8.283090591430664062e-02
-1.968334615230560303e-02
-6.165682151913642883e-02
-8.912598714232444763e-03
-7.002702355384826660e-02
9.926500916481018066e-02
1.264338046312332153e-01
-8.830372989177703857e-02
-1.458720713853836060e-01
9.427180141210556030e-02
-5.827183648943901062e-02
-2.635512501001358032e-02
7.173995673656463623e-02
1.750801503658294678e-01
-1.744288951158523560e-01
-8.895119652152061462e-03
1.137884706258773804e-01
-1.447981297969818115e-01
-1.260976940393447876e-01
-3.359435126185417175e-02
2.300845086574554443e-02
-6.137049198150634766e-02
-1.575300246477127075e-01
6.742475926876068115e-02
-2.248112559318542480e-01
-9.322706609964370728e-02
1.525212675333023071e-01
-8.201126940548419952e-03
-4.661951388698071241e-04
1.375128924846649170e-01
-1.426750272512435913e-01
1.016890555620193481e-01
-1.704425662755966187e-01
-1.107537150382995605e-01
6.994186434894800186e-03
-1.109867915511131287e-01
1.024303659796714783e-01
-3.730085492134094238e-02
-2.870752103626728058e-02
5.102088674902915955e-02
-5.277511104941368103e-02
-5.506876856088638306e-02
1.874433755874633789e-01
-4.397051408886909485e-03
6.896732747554779053e-02
-6.480593234300613403e-02
-4.809148982167243958e-02
2.520199492573738098e-02
-2.666208148002624512e-01
-1.394219398498535156e-01
7.856526970863342285e-02
-6.109856441617012024e-02
-5.289342626929283142e-02
2.973513118922710419e-02
8.605990442447364330e-04
-9.348857402801513672e-02
-1.803154200315475464e-01
7.866074889898300171e-02
-9.435886517167091370e-03
-1.089090257883071899e-01
-5.902773514389991760e-02
5.421222746372222900e-02
9.511075168848037720e-02
1.289222016930580139e-02
5.820412933826446533e-02
9.509306401014328003e-02
9.383732080459594727e-02
1.478945743292570114e-02
-4.832597076892852783e-02
-1.099739223718643188e-01
1.353524476289749146e-01
-2.324164099991321564e-02
-2.473751604557037354e-01
8.160400390625000000e-02
-3.678431734442710876e-02
-1.095113456249237061e-01
3.831855207681655884e-02
1.753372102975845337e-01
2.238336056470870972e-01
5.292130634188652039e-02
-4.390024766325950623e-02
-2.401818335056304932e-01
-2.329411171376705170e-02
-2.147407680749893188e-01
9.729963541030883789e-02
-3.592170402407646179e-02
-1.464105993509292603e-01
-1.336622834205627441e-01
-1.997966170310974121e-01
5.293303634971380234e-03
8.075285702943801880e-02
1.052935197949409485e-01
-3.516758382320404053e-01
4.182829335331916809e-02
1.673495396971702576e-02
-1.272517591714859009e-01
-1.440891176462173462e-01
1.305555850267410278e-01
7.939163595438003540e-02
-2.369224876165390015e-01
2.686226665973663330e-01
-1.914877444505691528e-02
-1.470604389905929565e-01
5.030029267072677612e-02
-1.577069759368896484e-01
-8.401374518871307373e-02
-2.281583100557327271e-01
7.695712894201278687e-02
5.398640036582946777e-02
-1.216995567083358765e-01
1.103782132267951965e-01
-9.076578915119171143e-02
7.981038838624954224e-02
-6.632078438997268677e-02
3.773619979619979858e-02
-2.377566397190093994e-01
4.699794203042984009e-02
1.059440523386001587e-01
6.385517865419387817e-02
-2.008323743939399719e-02
8.792442083358764648e-02
-1.095523610711097717e-01
9.542320854961872101e-03
2.666529119014739990e-01
-5.052936077117919922e-02
-3.842152282595634460e-02
9.636659175157546997e-02
-1.530380845069885254e-01
-8.085792511701583862e-02
-5.202205479145050049e-02
3.933244850486516953e-03
4.853817448019981384e-02
-2.732613384723663330e-01
4.900240525603294373e-02
1.504490971565246582e-01
-2.322207763791084290e-02
1.353830993175506592e-01
-1.980209350585937500e-01
-1.222659721970558167e-01
-1.547115296125411987e-01
-2.810593545436859131e-01
-1.409645378589630127e-01
2.551862411201000214e-02
3.737317770719528198e-02
1.128729879856109619e-01
1.470495015382766724e-01
9.304021298885345459e-02
-7.391434907913208008e-02
1.417299509048461914e-01
6.055832654237747192e-02
-8.885953575372695923e-02
-1.463899910449981689e-01
-4.911707341670989990e-02
-2.236501127481460571e-01
-5.142515897750854492e-02
-2.885985970497131348e-01
1.009354591369628906e-01
-4.783683922141790390e-03
-3.053654134273529053e-01
3.722774088382720947e-01
-2.181271463632583618e-01
4.712946247309446335e-03
2.795618027448654175e-02
2.250586152076721191e-01
3.697757795453071594e-02
6.859926879405975342e-02
-2.258292436599731445e-01
1.552234292030334473e-01
1.813931465148925781e-01
1.884393244981765747e-01
-1.365737169981002808e-01
-3.129165470600128174e-01
4.257195442914962769e-02
-6.897650659084320068e-02
-6.080377846956253052e-02
1.324017196893692017e-01
9.834551066160202026e-02
1.429808791726827621e-03
-8.576398342847824097e-02
-4.271624982357025146e-02
-2.990638017654418945e-01
-1.540715843439102173e-01
1.001200526952743530e-01
-8.818344026803970337e-02
-5.262051895260810852e-02
1.139645725488662720e-01
9.601709246635437012e-02
9.894689917564392090e-02
-2.952879071235656738e-01
-2.282578349113464355e-01
-4.267410933971405029e-02
-1.018125042319297791e-01
-2.491470985114574432e-02
7.423678040504455566e-02
-1.174569576978683472e-01
-1.310878843069076538e-01
7.726366072893142700e-02
-1.768822073936462402e-01
-2.137830555438995361e-01
1.502780467271804810e-01
-1.748990863561630249e-01
1.708361804485321045e-01
-3.118271827697753906e-01
-1.798716485500335693e-01
-3.372962772846221924e-01
-2.418097257614135742e-01
1.326546072959899902e-01
7.438057661056518555e-02
1.143909245729446411e-02
-1.012416332960128784e-01
-9.463360533118247986e-03
-1.450013816356658936e-01
3.449712693691253662e-02
1.000576000660657883e-02
3.460442274808883667e-02
-1.632659435272216797e-01
-2.065944671630859375e-01
1.603747345507144928e-02
-8.982468396425247192e-02
-1.240269932895898819e-02
2.043082118034362793e-01
4.424180462956428528e-02
-7.213962823152542114e-02
8.833743631839752197e-02
-7.334372401237487793e-02
1.484034806489944458e-01
-4.233536776155233383e-03
1.192787587642669678e-01
1.549454126507043839e-02
-3.487404584884643555e-01
-1.428373008966445923e-01
-2.177098393440246582e-01
2.909690374508500099e-03
6.089968606829643250e-02
-1.268054693937301636e-01
1.197673659771680832e-02
-1.204692851752042770e-02
-1.034004539251327515e-01
-3.467718958854675293e-01
1.306233461946249008e-02
9.378253668546676636e-02
3.293330967426300049e-02
4.747191816568374634e-02
-3.798778355121612549e-02
-3.216985985636711121e-02
1.609073132276535034e-01
-6.921531260013580322e-02
-1.780998706817626953e-01
-7.502637337893247604e-03
9.167379140853881836e-02
8.108740299940109253e-02
1.252939254045486450e-01
-3.221996501088142395e-02
-1.550050228834152222e-01
-7.529431581497192383e-02
-9.570136666297912598e-02
-3.871807828545570374e-02
-8.655887842178344727e-02
3.552895784378051758e-02
3.955497592687606812e-02
2.460341751575469971e-01
-6.802853941917419434e-02
-1.315915584564208984e-01
4.955792799592018127e-02
-1.922442391514778137e-02
3.950360417366027832e-02
-1.429027616977691650e-01
3.282617777585983276e-02
-2.865302376449108124e-03
-1.639541238546371460e-01
-2.952627241611480713e-01
-1.944830454885959625e-02
